#ifndef __LENET_WEIGHTS__
#define __LENET_WEIGHTS__

namespace LeNet {

const size_t weights_len = 61470;
const size_t bias_len = 236;

float weights[61470] = {
-0.1605975329875946, 
0.16706612706184387, 0.22280927002429962, 0.31596100330352783, 0.2070494443178177, -0.026922225952148438, 
0.11182180047035217, 0.2629379332065582, 0.35587677359580994, 0.49396494030952454, 0.05553740635514259, 
0.21940454840660095, 0.3411172032356262, 0.49018293619155884, 0.43719497323036194, 0.07224812358617783, 
-0.10479733347892761, 0.28716421127319336, 0.2574464678764343, 0.11575804650783539, -0.08774522691965103, 
-0.2160632610321045, -0.18101850152015686, -0.14832165837287903, 0.1751510053873062, 0.21753661334514618, 
-0.12411116808652878, -0.15509934723377228, 0.0938773900270462, -0.18901021778583527, 0.17285887897014618, 
-0.06248617172241211, -0.1166473776102066, 0.13573245704174042, 0.11920329928398132, 0.18234390020370483, 
0.08123552799224854, -0.0981842502951622, -0.01762903481721878, -0.12627142667770386, -0.024479622021317482, 
-0.14457309246063232, -0.12049461156129837, 0.05269233137369156, 0.021722426638007164, -0.14699171483516693, 
-0.08448563516139984, -0.1424846053123474, 0.11867856234312057, -0.1702442467212677, -0.0974837988615036, 
0.02345716767013073, -0.12418627738952637, 0.026064928621053696, -0.1408582627773285, 0.07828821986913681, 
0.002892982680350542, -0.11077828705310822, -0.10249108076095581, -0.11414821445941925, 0.2009865939617157, 
-0.08357679098844528, 0.14370021224021912, -0.09632508456707001, -0.15698979794979095, 0.11405934393405914, 
0.07546040415763855, -0.18033897876739502, 0.09955436736345291, 0.07433484494686127, 0.1041581928730011, 
-0.007099014241248369, -0.107417531311512, -0.06799661368131638, 0.10417100787162781, -0.12096573412418365, 
0.2950821816921234, 0.22955244779586792, 0.5724278688430786, 0.36951345205307007, 0.33840420842170715, 
0.7150691747665405, 0.7328505516052246, 0.8163009881973267, 0.7565939426422119, 0.34224918484687805, 
0.6994068026542664, 1.0061596632003784, 0.998482346534729, 0.9110705256462097, 0.5750360488891602, 
0.48380377888679504, 0.8141862154006958, 0.9076288342475891, 0.4126587212085724, 0.16565103828907013, 
0.5570201277732849, 0.6197872161865234, 0.48939549922943115, 0.17479534447193146, 0.042388178408145905, 
-0.19026364386081696, -0.14085261523723602, 0.17939023673534393, -0.15856948494911194, 0.09845458716154099, 
-0.1084320992231369, 0.12097081542015076, 0.1562708616256714, -0.10279782861471176, 0.09121524542570114, 
0.1744980365037918, -0.03341685235500336, -0.19834764301776886, 0.18319429457187653, -0.16638877987861633, 
-0.1671634316444397, 0.11482642590999603, 0.0702257975935936, -0.11024563759565353, 0.13995890319347382, 
-0.15795882046222687, -0.1798328459262848, 0.16896583139896393, 0.057138923555612564, 0.20088835060596466, 
-0.12265852093696594, 0.0018133858684450388, -0.1788872927427292, -0.18784892559051514, 0.017361972481012344, 
0.06330613791942596, -0.04897857829928398, -0.22030359506607056, 0.040790848433971405, 0.06912843883037567, 
0.19585101306438446, 0.10449985414743423, 0.056710436940193176, -0.08605048060417175, 0.1271374523639679, 
0.0046265339478850365, -0.13250325620174408, -0.1225239709019661, -0.18965841829776764, -0.00918531697243452, 
-0.07667051255702972, 0.17376692593097687, -0.03453207015991211, 0.10780219733715057, 0.013428193517029285, 
-0.052928563207387924, -0.015115070156753063, 0.043739959597587585, -0.042824387550354004, 0.102488674223423, 
-0.059908427298069, -0.08758485317230225, 0.02451700158417225, -0.05024190619587898, -0.0475008487701416, 
-0.04093252867460251, 0.049231112003326416, -0.019038327038288116, 0.054025039076805115, -0.030063709244132042, 
-0.016652921214699745, 0.059742581099271774, -0.03749598562717438, -0.06759549677371979, -0.0601218044757843, 
0.05775757506489754, -0.012120953761041164, -0.06077823415398598, 0.008459503762423992, -0.04163439944386482, 
0.02796032652258873, 0.019194956868886948, 0.07289032638072968, -0.07270792126655579, -0.061268676072359085, 
0.07558437436819077, -0.04386276751756668, 0.025283556431531906, 0.022164491936564445, 0.03857652470469475, 
0.05972166359424591, 0.07899301499128342, 0.012840148992836475, 0.03172144293785095, 0.07516058534383774, 
-0.06032043695449829, 0.04760937765240669, 0.021854307502508163, -0.02826143056154251, 0.07607470452785492, 
-0.0338444747030735, 0.0561581514775753, -0.017707007005810738, 0.06616923958063126, 0.023410124704241753, 
-0.05272137373685837, -0.02586124837398529, 0.015697570517659187, 0.04646521806716919, -0.07935924828052521, 
0.07371390610933304, 0.076353058218956, 0.009203528985381126, 0.06820467114448547, -0.07296253740787506, 
-0.057819195091724396, 0.03813802823424339, -0.05410221964120865, 0.005567614920437336, -0.027057889848947525, 
-0.017218908295035362, -0.016763828694820404, 0.014912313781678677, -0.06500310450792313, 0.019260823726654053, 
-0.06916619092226028, 0.04130608215928078, 0.07029657810926437, 0.02107344940304756, 0.19873592257499695, 
-0.003862772136926651, -0.09263280779123306, -0.022538265213370323, -0.006104244384914637, 0.1459341198205948, 
-0.06506860256195068, -0.12567593157291412, -0.007144349627196789, -0.010713654570281506, 0.13092875480651855, 
-0.07634177058935165, -0.10539335012435913, -0.022358177229762077, -0.008045361377298832, 0.15468883514404297, 
-0.09193476289510727, 0.0039079454727470875, 0.11895337700843811, 0.07376840710639954, 0.11514312028884888, 
0.022472819313406944, -0.06432360410690308, 0.025873558595776558, 0.007258674129843712, -0.03546317294239998, 
-0.07983579486608505, 0.06036487594246864, 0.07227369397878647, 0.03759686276316643, -0.00875337328761816, 
-0.055198609828948975, 0.012687992304563522, -0.03129437565803528, -0.06789813935756683, -0.010906524956226349, 
-0.058142416179180145, 0.06020507588982582, 0.016519097611308098, -0.012746418826282024, -0.01599091850221157, 
-0.07558877021074295, -0.0617523118853569, -0.044125188142061234, -0.07670966535806656, -0.010838732123374939, 
-0.058342523872852325, 0.08038193732500076, 0.028970809653401375, -0.0077146305702626705, -0.007631396409124136, 
-0.05168358236551285, -0.05663240700960159, 0.05839613452553749, -0.06546929478645325, 0.012204560451209545, 
-0.043719496577978134, -0.07400070875883102, 0.02236609160900116, -0.06444578617811203, -0.0054467651061713696, 
-0.015758434310555458, 0.02379046194255352, -0.012202315963804722, 0.012295099906623363, 0.05919387936592102, 
-0.023312123492360115, -0.014936537481844425, 0.051900289952754974, -0.04544677957892418, 0.012862266972661018, 
0.06464347243309021, 0.02153686434030533, -0.07672420889139175, 0.05744428560137749, -0.0014116461388766766, 
0.006900713313370943, 0.047985345125198364, -0.01747325249016285, -0.14457757771015167, -0.00045276101445779204, 
0.08821433782577515, 0.09470963478088379, -0.002361858729273081, -0.08383485674858093, 0.03031139262020588, 
0.13723014295101166, 0.15603309869766235, 0.18861860036849976, 0.034197818487882614, -0.041482169181108475, 
-0.12303844094276428, -0.12080533802509308, 0.07928770780563354, 0.012632351368665695, -0.06747210770845413, 
-0.20680980384349823, -0.1729383021593094, -0.020703131332993507, 0.042522650212049484, 0.03833025321364403, 
-0.012565350160002708, -0.0101337730884552, -0.036449529230594635, -0.05931011214852333, -0.06425190716981888, 
0.03854241967201233, -0.0011250722454860806, 0.04651675373315811, 0.0032147536985576153, -0.0644528865814209, 
0.06653303653001785, 0.013642112724483013, -0.012040184810757637, -0.06560070812702179, -0.032985929399728775, 
-0.03510824963450432, -0.07134753465652466, -0.026079565286636353, 0.035915035754442215, -0.04034187272191048, 
0.012289458885788918, -0.09664718061685562, -0.07287902384996414, 0.015554786659777164, 0.05212852358818054, 
-0.04616665467619896, 0.0659031793475151, -0.05958109721541405, -0.039731465280056, -0.07359354197978973, 
-0.009607512503862381, -0.08684221655130386, -0.06254151463508606, -0.013003870844841003, -0.046914342790842056, 
0.06601162254810333, 0.05733104422688484, -0.041656576097011566, 0.045447323471307755, 0.04185023158788681, 
0.03319058567285538, -0.03833533078432083, -0.007755001075565815, -0.0376317985355854, 0.059622474014759064, 
-0.0680374950170517, -0.03760315477848053, 0.06214578449726105, -0.04566157981753349, -0.22499419748783112, 
0.01747831329703331, 0.21297383308410645, 0.029469501227140427, -0.1638321876525879, 0.13444244861602783, 
0.2616727650165558, 0.44075965881347656, 0.43493080139160156, 0.23177355527877808, 0.27907347679138184, 
0.2709676921367645, 0.24658001959323883, 0.3108641803264618, 0.1950061321258545, -0.13382409512996674, 
-0.2753928601741791, -0.30244430899620056, -0.1635751575231552, -0.04242868721485138, -0.06478436291217804, 
-0.2882004678249359, -0.3344992399215698, -0.16582942008972168, -0.06298757344484329, -0.018226636573672295, 
-0.00031768641201779246, 0.0010769753716886044, 0.04403124749660492, -0.01666521467268467, 0.03813377395272255, 
-0.042636971920728683, -0.014796300791203976, 0.07654484361410141, 0.011128920130431652, -0.026973286643624306, 
-0.07204502820968628, -0.03032934106886387, -0.03345228359103203, 0.026732271537184715, 0.047502849251031876, 
0.057243190705776215, 0.07919219881296158, 0.041176266968250275, 0.034021977335214615, -0.07176753878593445, 
0.055036820471286774, 0.022484950721263885, 0.03962419927120209, -0.06589663773775101, -0.0758640393614769, 
-0.028064334765076637, 0.03687380254268646, 0.05696944519877434, 0.023831499740481377, 0.05024948716163635, 
0.03559788316488266, -0.07498270273208618, 0.025449691340327263, -0.025794420391321182, 0.03649246320128441, 
0.05216444283723831, -0.01892032101750374, -0.05590491741895676, 0.07385022938251495, -0.07190249115228653, 
-0.055365629494190216, 0.058968812227249146, -0.011954163201153278, -0.005707684438675642, -0.022086990997195244, 
-0.007019165903329849, 0.024845104664564133, -0.049163058400154114, 0.07123641669750214, 0.014854407869279385, 
-0.10644293576478958, -0.06648623943328857, -0.19672861695289612, -0.16360414028167725, 0.13699543476104736, 
0.15927064418792725, 0.08046701550483704, -0.12578938901424408, 0.013739611022174358, 0.09935642033815384, 
0.12461335211992264, 0.1264917105436325, -0.0035728421062231064, 0.07334575057029724, 0.15906180441379547, 
0.14890067279338837, -0.017792655155062675, 0.0036769357975572348, 0.11533302068710327, 0.02335337921977043, 
0.08328059315681458, 0.061280231922864914, 0.0008424380794167519, 0.0569315105676651, -0.041368961334228516, 
0.024163372814655304, 0.0011057925876230001, -0.06424547731876373, -0.01814342848956585, 0.059442006051540375, 
0.05862169712781906, 0.07285232096910477, 0.07664534449577332, -0.07053838670253754, -0.027379848062992096, 
0.07783880084753036, -0.06756613403558731, -0.036571092903614044, -0.07728242129087448, 0.017292644828557968, 
-0.008228175342082977, 0.0021157311275601387, 0.026022769510746002, -0.04720078036189079, -0.051579348742961884, 
-0.046801984310150146, -0.0174319576472044, -0.0616043359041214, 0.007204782217741013, 0.05302921310067177, 
-0.03972775116562843, 0.05969011411070824, -0.016458550468087196, -0.07104101777076721, 0.006565784104168415, 
0.0477234423160553, 0.0804705023765564, 0.06308246403932571, -0.04750584810972214, 0.06323502957820892, 
0.06774361431598663, -0.0003017672279383987, 0.05478701367974281, -0.06692208349704742, -0.03464176133275032, 
0.04378671571612358, 0.0678953155875206, -0.02484416775405407, 0.027674971148371696, 0.04276091977953911, 
0.01573808863759041, 0.0018427124014124274, -0.002848610281944275, 0.041818659752607346, 0.03323299437761307, 
0.06110994145274162, 0.011294784024357796, -0.21470871567726135, -0.21343448758125305, 0.22339242696762085, 
0.4516293704509735, 0.30953484773635864, -0.06523802876472473, -0.21214847266674042, 0.21469298005104065, 
0.4902555048465729, 0.32789233326911926, 0.0026147484313696623, 0.09288650006055832, 0.15174366533756256, 
0.2675263583660126, 0.1851831078529358, 0.07569269835948944, 0.042780306190252304, -0.07879554480314255, 
-0.09058921784162521, -0.13366378843784332, -0.14548076689243317, -0.06655127555131912, -0.00014057778753340244, 
0.07482417672872543, -0.048934221267700195, -0.03547070920467377, 0.03016943484544754, 0.07799063622951508, 
0.008979289792478085, -0.020095329731702805, -0.07855700701475143, -0.010720532387495041, -0.07639969885349274, 
0.07257569581270218, -0.05359765514731407, -0.04057374969124794, -0.01582522876560688, -0.0524628572165966, 
0.04958267882466316, 0.05197259783744812, 0.07025545090436935, 0.05146510899066925, -0.05553041398525238, 
0.032798558473587036, -0.006200695410370827, -0.014850820414721966, 0.05902007222175598, 0.015117901377379894, 
-0.02660411223769188, 0.06719598919153214, -0.04109503701329231, -0.05366610735654831, -0.06338796764612198, 
-0.03444584086537361, 0.07257405668497086, 0.05275272950530052, -0.033961642533540726, 0.026478491723537445, 
0.014096599072217941, -0.05466437339782715, 0.053174782544374466, 0.022551530972123146, -0.04766523092985153, 
-0.06952887773513794, 0.04993640258908272, -0.08387269824743271, 0.054867975413799286, -0.09066203981637955, 
0.029076017439365387, -0.02509881928563118, -0.013805137015879154, 0.009646871127188206, -0.08106813579797745, 
0.010836592875421047, 0.03274533152580261, 0.019832463935017586, 0.06818969547748566, 0.010851622559130192, 
0.07547622174024582, -0.034565795212984085, -0.02301649935543537, 0.07151180505752563, 0.1186632588505745, 
-0.036571212112903595, -0.016255531460046768, -0.018825482577085495, 0.07053645700216293, 0.1719474196434021, 
-0.04835201054811478, -0.07986720651388168, -0.09178709238767624, 0.004750586114823818, 0.16052812337875366, 
0.06755595654249191, -0.14315611124038696, -0.04500207304954529, -0.0665585845708847, -0.02176886610686779, 
-0.055286116898059845, 0.03491365164518356, -0.04991287365555763, 0.05282340571284294, -0.08253002166748047, 
0.0046080294996500015, 0.05616326630115509, -0.06883930414915085, -0.02048393525183201, -0.0021438084077090025, 
0.07711686939001083, -0.04790377616882324, 0.023952826857566833, 0.0433991365134716, -0.050494544208049774, 
0.04553552344441414, -0.032627515494823456, 0.011032032780349255, 0.06231372058391571, 0.02507692202925682, 
0.04918089136481285, 0.08698513358831406, -0.04400883987545967, 0.04016432911157608, 0.018474537879228592, 
-0.012771314941346645, 0.06005042418837547, -0.027082083746790886, -0.07964107394218445, 0.027797741815447807, 
-0.04168813303112984, 0.08394588530063629, 0.020686600357294083, 0.00750146945938468, 0.038097772747278214, 
-0.05803632736206055, -0.05211362615227699, -0.07178887724876404, 0.06550813466310501, 0.061612654477357864, 
0.00305687403306365, -0.06763865798711777, 0.009674283675849438, -0.05811958387494087, 0.08069343119859695, 
0.017973262816667557, 0.08132436126470566, -0.030088329687714577, -0.03793462738394737, -0.06005994975566864, 
-0.02183682471513748, 0.11786531656980515, 0.04402455687522888, 0.035437628626823425, 0.03846341371536255, 
0.10695380717515945, 0.1931939572095871, 0.05217721313238144, -0.011516790837049484, 0.24209731817245483, 
0.217317134141922, 0.009999620728194714, -0.10805016756057739, -0.08967958390712738, 0.29236486554145813, 
0.17901216447353363, -0.16037696599960327, -0.17364326119422913, -0.11356040090322495, 0.27431294322013855, 
-0.029902806505560875, -0.21751266717910767, -0.06352894753217697, -0.042034272104501724, -0.07355877757072449, 
-0.03923841565847397, 0.013119246810674667, -0.0351548045873642, 0.054293155670166016, -0.01874426007270813, 
0.03691520541906357, -0.07193972915410995, -0.07245509326457977, -0.04859643056988716, -0.015441635623574257, 
0.01506444439291954, -0.009743615984916687, -0.0037451565731316805, -0.02314266376197338, -0.011242871172726154, 
-0.060808874666690826, 0.007650372572243214, 0.01873166486620903, -0.0029170115012675524, -0.06981290131807327, 
-0.04698452353477478, -0.06256958842277527, 0.05009875446557999, -0.075725257396698, -0.0752193033695221, 
0.05573142319917679, 0.01935468800365925, 0.013912207446992397, 0.0022880372125655413, 0.02964881807565689, 
-0.048174843192100525, 0.02804768830537796, -0.07570024579763412, -0.034895144402980804, 0.0523875392973423, 
-0.014389858581125736, 0.021126488223671913, -0.010776141658425331, -0.017715105786919594, 0.008499324321746826, 
0.05022088810801506, 0.061353761702775955, 0.02875901572406292, -0.023232057690620422, 0.028505543246865273, 
0.06637759506702423, 0.040429580956697464, -0.06526441872119904, -0.07619220018386841, 0.008291893638670444, 
-0.027207640931010246, 0.03940592333674431, -0.005735393147915602, 0.10419052839279175, -0.09509309381246567, 
-0.047206249088048935, 0.04214373603463173, 0.013450659811496735, 0.07158242166042328, 0.09972839057445526, 
-0.06741411983966827, -0.027854684740304947, -0.06882757693529129, -0.06338558346033096, 0.05363084375858307, 
0.10987494140863419, -0.01852152869105339, -0.019670341163873672, -0.036605533212423325, 0.05170842632651329, 
0.08595509082078934, 0.054915666580200195, 0.146476611495018, 0.12654073536396027, 0.052395049482584, 
0.024926304817199707, -0.0034764506854116917, 0.024398604407906532, -0.07146014273166656, -0.07963985204696655, 
0.039645496755838394, 0.01694965735077858, -0.045962173491716385, 0.011113970540463924, 0.0014541605487465858, 
-0.022684618830680847, -0.004935511387884617, 0.07747510075569153, 0.03595838323235512, -0.08157603442668915, 
0.08529666811227798, 0.004115142393857241, -0.06624350696802139, 0.004101510159671307, 0.03375448286533356, 
-0.06407425552606583, -0.03484959527850151, -0.01679716818034649, -0.041100624948740005, -0.032881155610084534, 
0.018211737275123596, 0.006400127429515123, 0.01796584390103817, -0.060892075300216675, -0.06029640883207321, 
-0.07984434068202972, -0.010975982993841171, 0.04151096194982529, -0.013588475063443184, -0.05577745661139488, 
0.029453162103891373, -0.07795965671539307, 0.07044895738363266, -0.06405384838581085, 0.06637586653232574, 
-0.03943429887294769, 0.016820861026644707, -0.025876132771372795, -0.04175746068358421, 0.005689329467713833, 
-0.002965538064017892, -0.06127312406897545, -0.04974905401468277, 0.02042989805340767, -0.006749300751835108, 
0.019283533096313477, 0.10263951122760773, 0.0481739304959774, -0.04561775550246239, -0.046195123344659805, 
-0.04033050686120987, 0.015594947151839733, -0.1284409761428833, -0.2108810842037201, 0.1148170456290245, 
0.12299931794404984, -0.007034228648990393, -0.21437087655067444, -0.14662118256092072, 0.21002468466758728, 
0.20232020318508148, 0.06745466589927673, 0.04238160327076912, 0.21546439826488495, -0.004998436663299799, 
0.0657910630106926, 0.04901894927024841, 0.15543319284915924, 0.25512075424194336, 0.06492974609136581, 
0.022290365770459175, 0.0607612244784832, -0.08035866171121597, -0.04651274159550667, -0.0024512377567589283, 
0.005891586188226938, -0.07024102658033371, -0.010066739283502102, -0.06448625773191452, -0.05860389769077301, 
-0.022612079977989197, -0.06762941926717758, 0.015309657901525497, -0.012870303355157375, 0.019206568598747253, 
-0.0444658026099205, -0.002476312918588519, 0.03241067752242088, 0.079778291285038, 0.07309748977422714, 
-0.023936651647090912, -0.002343609929084778, -0.03905405476689339, 0.0649770125746727, -0.0404505729675293, 
0.004625682253390551, -0.04161352664232254, -0.05505431443452835, 0.00994863361120224, 0.001594279776327312, 
0.043047405779361725, -0.03586641326546669, -0.01998896151781082, -0.060930050909519196, -0.079277403652668, 
0.0542602501809597, 0.0660223737359047, 0.017487024888396263, -0.038489360362291336, -0.070128433406353, 
-0.0011972967768087983, -0.03610532730817795, -0.016450896859169006, -0.05814586952328682, 0.0343017652630806, 
-0.040054477751255035, -0.02769562043249607, -0.09473622590303421, -0.06488750874996185, -0.05838709697127342, 
0.03407687321305275, -0.10495422780513763, -0.0786755383014679, 0.06206957995891571, -0.047835469245910645, 
0.0726059302687645, -0.047077476978302, 0.06298204511404037, 0.08062387257814407, 0.07392781972885132, 
0.011757881380617619, 0.019455429166555405, 0.0760410875082016, 0.046964555978775024, 0.036581769585609436, 
-0.06472824513912201, 0.07854471355676651, -0.03341686353087425, 0.0038165170699357986, -0.06372339278459549, 
-0.01661427691578865, 0.029339546337723732, -0.017860451713204384, 0.028406180441379547, 0.039190735667943954, 
0.014849276281893253, 0.064797043800354, -0.018783962354063988, -0.02098371461033821, 0.08554533123970032, 
0.003727215575054288, 0.07166698575019836, -0.03938089311122894, 0.009994491934776306, 0.057207006961107254, 
-0.02260751836001873, 0.019809676334261894, 0.005139699671417475, -0.025805924087762833, 0.045242246240377426, 
-0.06353811919689178, -0.0029435877222567797, 0.004555159714072943, 0.037681978195905685, -0.06877633184194565, 
0.038889992982149124, -0.021423837170004845, 0.038334086537361145, 0.01808156631886959, -0.026208462193608284, 
-0.03763849660754204, -0.08103157579898834, 0.04361762851476669, -0.026391610503196716, 0.03723840415477753, 
-0.026308605447411537, -0.07624143362045288, -0.03959813714027405, -0.07594354450702667, 0.05146376043558121, 
0.07120957970619202, -0.00700145959854126, 0.03855721279978752, -0.07587066292762756, 0.06337348371744156, 
-0.06856418401002884, -0.03263069689273834, -0.013483992777764797, 0.07028700411319733, -0.0468037910759449, 
0.02963477186858654, -0.04151648283004761, 0.05613819509744644, 0.02847158908843994, -0.013964022509753704, 
-0.19974736869335175, -0.15797078609466553, 0.01141282543540001, 0.06402873992919922, 0.06510735303163528, 
-0.08185180276632309, 0.08572164922952652, 0.09621328860521317, 0.00316383084282279, 0.012209131382405758, 
0.09824125468730927, 0.18938711285591125, 0.13911543786525726, -0.07334119826555252, -0.11230985075235367, 
0.024472197517752647, 0.09736337512731552, -0.033354502171278, -0.16899223625659943, -0.1048608347773552, 
0.020810700953006744, 0.02993098646402359, -0.07808922231197357, -0.037867624312639236, 0.06973029673099518, 
-0.05700516328215599, -0.07218530029058456, -0.029946474358439445, 0.01682744175195694, 0.07588104903697968, 
-0.03645862266421318, -0.012504656799137592, -0.06484238058328629, -0.05741558596491814, 0.0007731237565167248, 
0.061494164168834686, 0.07314585894346237, -0.03308875486254692, -0.035760365426540375, -0.06883278489112854, 
-0.023528939113020897, 0.008799288421869278, -0.0066358656622469425, -0.023904886096715927, -0.023715324699878693, 
-0.0788850486278534, -0.00636346684768796, 0.04843888431787491, 0.068065345287323, 0.029552465304732323, 
0.03986382856965065, 0.014159994199872017, 0.018412934616208076, -0.06959117203950882, 0.08929075300693512, 
-0.01894020475447178, -0.05535603687167168, 0.03552193567156792, 0.05567605048418045, -0.00012869664351455867, 
0.00673928577452898, 0.04983322322368622, 0.08102929592132568, 0.06509848684072495, -0.045262373983860016, 
0.05161364749073982, 0.04930325224995613, 0.09537652134895325, 0.043410345911979675, 0.0926886722445488, 
-0.03992682695388794, 0.00642372528091073, 0.04697899892926216, 0.01934967190027237, 0.014575337059795856, 
0.055467575788497925, -0.04586265981197357, 0.027058962732553482, -0.011925426311790943, 0.05130048096179962, 
-0.02184884250164032, -0.02377936616539955, -0.06154610216617584, -0.054158054292201996, -0.024293677881360054, 
0.10576121509075165, 0.06686251610517502, -0.018083272501826286, 0.014906957745552063, 0.032641373574733734, 
0.10464923083782196, 0.03866308555006981, -0.10222309827804565, 0.01226827409118414, -0.0006976919248700142, 
-0.05110275745391846, 0.019130241125822067, 0.01025991328060627, 0.04589387774467468, -0.05052637681365013, 
-0.04950271546840668, -0.0811578631401062, -0.06263191252946854, 0.0452645905315876, 0.05301014333963394, 
0.07172651588916779, -0.06342484802007675, -0.010767198167741299, -0.016228267922997475, 0.05961623042821884, 
0.06716327369213104, -0.05239817127585411, 0.06521014869213104, 0.055944930762052536, -0.031506530940532684, 
-0.0059789023362100124, 0.07438748329877853, -0.016450408846139908, -0.026836641132831573, 0.007038832642138004, 
0.03761417046189308, -0.06398255378007889, 0.058037012815475464, 0.03171009570360184, 0.05288245156407356, 
0.04695213958621025, -0.03275258466601372, -0.04177090898156166, -0.060048993676900864, 0.04674861207604408, 
-0.07283718138933182, -0.059733789414167404, -0.04777401313185692, -0.032101720571517944, 0.0714481770992279, 
0.062237709760665894, -0.07612115889787674, -0.03621155023574829, 0.03315814211964607, 0.009302846156060696, 
0.02302832342684269, -0.0018771941540762782, -0.04757888987660408, -0.0662054792046547, -0.047790564596652985, 
0.021517310291528702, -0.020647495985031128, -0.017117667943239212, 0.03556814417243004, -0.053739480674266815, 
-0.08725246787071228, -0.0550350621342659, -0.08357992023229599, -0.026986803859472275, 0.09578043222427368, 
0.08545366674661636, 0.05315292999148369, -0.14003053307533264, -0.14746609330177307, 0.050437409430742264, 
0.08813226222991943, 0.004212029743939638, -0.055634137243032455, -0.14189967513084412, 0.05354543402791023, 
0.04013405367732048, 0.05541004613041878, -0.12014829367399216, -0.12270349264144897, -0.10632308572530746, 
0.07725239545106888, 0.13313153386116028, -0.06275465339422226, -0.062495239078998566, -0.023838816210627556, 
-0.06092151254415512, -0.04755130037665367, -0.06159457191824913, 0.008590694516897202, 0.0791243314743042, 
0.0008356601465493441, 0.0030406778678297997, 0.012565826065838337, 0.014527522958815098, -0.012099158950150013, 
-0.03396087884902954, 0.05290207639336586, 0.018326932564377785, 0.023166196420788765, 0.040399570018053055, 
0.032234303653240204, 0.0757436603307724, -0.003735021688044071, -0.022627519443631172, 0.03695721551775932, 
-0.03097119741141796, 0.06119885668158531, -0.0017585980240255594, 0.02275855652987957, 0.07652387768030167, 
0.07692252099514008, 0.05102921649813652, 0.026345770806074142, -0.07037923485040665, -0.05952640250325203, 
0.07363882660865784, -0.029337221756577492, -0.02568480744957924, 0.021849649026989937, 0.05571338161826134, 
-0.007177938707172871, 0.035356294363737106, 0.0919988825917244, 0.014370814897119999, 0.03787260130047798, 
-0.06402922421693802, 0.03273226320743561, 0.04422294721007347, 0.023817269131541252, 0.004930167458951473, 
-0.04826231300830841, -0.06868567317724228, 0.08049671351909637, 0.010995443910360336, 0.10131490975618362, 
-0.05670798197388649, 0.01715617999434471, -0.004872505087405443, 0.02538861706852913, -0.006882796995341778, 
-0.0008422559476457536, -0.0847722589969635, -0.03215549886226654, 0.12979668378829956, 0.10741779208183289, 
-0.05053554102778435, -0.08783259242773056, 0.0045665861107409, 0.06047572195529938, 0.07590389251708984, 
0.013668244704604149, -0.09707137197256088, -0.02424023486673832, 0.006692640017718077, -0.006800532341003418, 
-0.027437975630164146, -0.07633837312459946, 0.002643924206495285, 0.04131636396050453, 0.0031858931761235, 
0.038964007049798965, -0.02715367265045643, -0.044585999101400375, -0.029780320823192596, 0.004465093836188316, 
0.08189579099416733, -0.05882130563259125, -0.07301609218120575, 0.002693138550966978, -0.011309422552585602, 
0.044550586491823196, -0.03234810009598732, -0.02889847941696644, -0.04758149012923241, -0.0043574608862400055, 
-0.0216111708432436, 0.02534904144704342, -0.04956849664449692, -0.08117525279521942, -0.022552603855729103, 
0.0059034209698438644, 0.07791320234537125, -0.04851372167468071, 0.037048112601041794, 0.06407088041305542, 
0.041371557861566544, -0.001948020770214498, -0.06305579841136932, 0.0007463742513209581, -0.03374475613236427, 
-0.06720153242349625, -0.025039928033947945, -0.04417102783918381, 0.002891094423830509, -0.04329715296626091, 
-0.07557068020105362, -0.04013126343488693, 0.07378340512514114, -0.049852050840854645, -0.05238783732056618, 
-0.026298563927412033, 0.020433170720934868, 0.05144714564085007, -0.025684216991066933, 0.030822742730379105, 
0.056421395391225815, -0.023426920175552368, 0.023504890501499176, -0.021315887570381165, 0.1644153892993927, 
0.04895837977528572, -0.04831019043922424, -0.10297470539808273, 0.0532577820122242, 0.08623381704092026, 
-0.019965220242738724, -0.10366182774305344, -0.09921862185001373, 0.10291566699743271, 0.10296685993671417, 
0.01887601986527443, -0.027341660112142563, -0.12219671159982681, 0.11050064116716385, 0.11059050261974335, 
0.005991336423903704, 0.019496968016028404, -0.10726786404848099, 0.04230694845318794, 0.03173551335930824, 
0.08912691473960876, -0.015035433694720268, 0.01768721081316471, -0.01632973738014698, -0.04220089688897133, 
0.01803939789533615, -0.041474904865026474, -0.0684971809387207, 0.012466201558709145, -0.01834278181195259, 
-0.0800618901848793, 0.06868661940097809, -0.05647939071059227, 0.010418156161904335, 0.03844602406024933, 
-0.04267030581831932, 0.01097811944782734, 0.02409002184867859, -0.03691636770963669, 0.049139007925987244, 
0.044086746871471405, 0.06422752887010574, -0.055272527039051056, 0.028724446892738342, -0.010824385099112988, 
-0.03819843754172325, 0.07612409442663193, 0.06170078366994858, 0.06055693328380585, 0.03980562835931778, 
0.05244288221001625, -0.0637572854757309, -0.01083038654178381, -0.08116070926189423, -0.03803255409002304, 
0.07615043222904205, 0.048847541213035583, -0.01634875498712063, -0.030881237238645554, -0.011956836096942425, 
0.08588387072086334, 0.037399549037218094, -0.04000214487314224, -0.02759529836475849, -0.000942749495152384, 
0.07141900807619095, -0.052554886788129807, -0.021001072600483894, 0.00022969946439843625, 0.0034138313494622707, 
-0.03535445034503937, 0.0008407438290305436, 0.03489075228571892, 0.007645819336175919, -0.0337919183075428, 
-0.093166284263134, 0.04956817999482155, 0.04382624849677086, -0.014311648905277252, -0.039254605770111084, 
-0.013050006702542305, -0.08586043119430542, 0.10126794129610062, 0.08141540735960007, -0.060204122215509415, 
-0.10063233971595764, -0.0024132051039487123, 0.049044132232666016, 0.13827577233314514, -0.0025795670226216316, 
0.017472928389906883, 0.07473702728748322, 0.13662299513816833, 0.07962789386510849, 0.005834226030856371, 
0.1086834967136383, 0.05490030720829964, 0.018252775073051453, -0.09519009292125702, -0.0031853097025305033, 
-0.010134748183190823, 0.07413952797651291, -0.05525835603475571, -0.08442743122577667, 0.04375188797712326, 
-0.027958489954471588, 0.014895292930305004, 0.06762927025556564, -0.0716184452176094, -0.057410530745983124, 
-0.07650601118803024, -0.06015210971236229, -0.06572289764881134, 0.0052606635726988316, -0.03553112968802452, 
-0.03291594237089157, 0.027577172964811325, -0.05657505616545677, -0.06442900747060776, -0.0774402841925621, 
-0.06134391948580742, -0.06499259918928146, -0.039724867790937424, -0.02552850730717182, 0.05832952633500099, 
0.04492446035146713, -0.05823802575469017, 0.03575580194592476, 0.04379499331116676, -0.0007148199365474284, 
0.0318298302590847, -0.04844750836491585, 0.015808917582035065, -0.04704853892326355, -0.051033005118370056, 
-0.04327014833688736, 0.05178426578640938, -0.014745090156793594, 0.0011623684549704194, -0.046034492552280426, 
-0.032808076590299606, -0.04903682693839073, -0.07131589204072952, 0.0031795550603419542, 0.024374162778258324, 
-0.07586963474750519, 0.07513479143381119, -0.01706531085073948, -0.07552191615104675, 0.06126582249999046, 
-0.06858977675437927, -0.17921322584152222, 0.004211766179651022, 0.08957842737436295, 0.06126609072089195, 
-0.15321007370948792, -0.2985794246196747, 0.11220838874578476, 0.31299811601638794, 0.02172742411494255, 
-0.08387881517410278, -0.08966000378131866, 0.23684246838092804, 0.16942651569843292, 0.11903078109025955, 
0.12235872447490692, 0.10897590965032578, 0.18867838382720947, -0.004400473553687334, 0.06729745864868164, 
0.08454765379428864, 0.13210023939609528, 0.050296884030103683, -0.06360142678022385, -0.046451717615127563, 
0.03813347592949867, -0.06078647822141647, -0.010475125163793564, -0.05885973200201988, 0.035562239587306976, 
-0.005086757242679596, 0.025891516357660294, 0.04302922636270523, -0.005972918588668108, 0.036785922944545746, 
0.02934199571609497, 0.020646337419748306, -0.028592489659786224, -0.03717866167426109, 0.015667155385017395, 
0.07961257547140121, 0.020792795345187187, -0.002229588571935892, 0.03351215273141861, 0.013917765580117702, 
-0.06846998631954193, -0.014145792461931705, -0.022898847237229347, -0.028218545019626617, -0.044705383479595184, 
-0.07731348276138306, 0.07476979494094849, -0.017855485901236534, 0.04362178593873978, 0.005005158018320799, 
0.0333009734749794, -0.04677092283964157, 0.04202386736869812, -0.03597564622759819, -0.03275526314973831, 
-0.057998474687337875, 0.07641688734292984, -0.0641569122672081, -0.039134856313467026, 0.0013053808361291885, 
0.045004572719335556, -0.0777621865272522, -0.03377268463373184, -0.07598516345024109, -0.08309933543205261, 
-0.029488839209079742, -0.06594770401716232, 0.042890530079603195, 0.013240479864180088, -0.06975889205932617, 
-0.03491964563727379, -0.11999864876270294, -0.03609250485897064, -0.03132902458310127, -0.03643489629030228, 
-0.053548675030469894, -0.024146128445863724, 0.014945476315915585, -0.027204841375350952, 0.10564305633306503, 
-0.036092936992645264, -0.04038729518651962, -0.03104041889309883, 0.03395428508520126, -0.03341898322105408, 
0.007199103944003582, 0.07618793845176697, -0.019291644915938377, -0.0627061203122139, -0.04503289610147476, 
-0.02129092998802662, -0.025781311094760895, -0.03443562611937523, 0.08194971829652786, 0.022504765540361404, 
0.018096324056386948, 0.05044737458229065, -0.043821655213832855, -0.08966425806283951, -0.010073939338326454, 
-0.03344668447971344, -0.023126380518078804, -0.09230661392211914, 0.059375446289777756, 0.028015831485390663, 
0.005887971725314856, 0.002129945205524564, 0.03108350560069084, 0.06298591941595078, -0.03260168060660362, 
-0.06224199756979942, -0.04363634064793587, -0.01860693469643593, -0.025191884487867355, -0.07064324617385864, 
0.04662608355283737, 0.05166129022836685, 0.03689680993556976, -0.00501367449760437, -0.08217746019363403, 
0.07298652827739716, 0.06584052741527557, -0.011255649849772453, 0.03085891157388687, 0.05112745612859726, 
0.08008330315351486, -0.028631391003727913, 0.04074550047516823, 0.02354336716234684, -0.07168036699295044, 
-0.025983760133385658, -0.03500569239258766, -0.0723673403263092, -0.016543539240956306, -0.08165454119443893, 
-0.04356176033616066, -0.023527709767222404, -0.06378993391990662, 0.015985185280442238, 0.0649656131863594, 
-0.038872797042131424, 0.04760107398033142, -0.054754190146923065, -0.0038783415220677853, 0.036908816546201706, 
-0.17456716299057007, -0.36301636695861816, -0.13420900702476501, 0.05596614629030228, 0.1482965052127838, 
-0.049026500433683395, -0.05920403450727463, 0.10070229321718216, 0.12914368510246277, 0.18369647860527039, 
0.14401118457317352, 0.06307137757539749, 0.24184724688529968, 0.12979550659656525, 0.08746155351400375, 
0.20305262506008148, 0.22728201746940613, 0.2626330852508545, 0.009273619391024113, 0.021521197631955147, 
0.08712459355592728, 0.11633867770433426, 0.08314595371484756, 0.08969374746084213, 0.02134605124592781, 
-0.048588771373033524, -0.01642904430627823, 0.020898407325148582, -0.03426481783390045, -0.021967217326164246, 
0.015931205824017525, 0.03741279989480972, 0.013166016899049282, 0.0056865522637963295, 0.07549088448286057, 
-0.03163093701004982, -0.03510933369398117, 0.0273793525993824, -0.07387206703424454, -0.028791414573788643, 
-0.016613448038697243, -0.06970945745706558, -0.026249263435602188, 0.02258916012942791, 0.06549971550703049, 
0.010444410145282745, 0.019134189933538437, -0.0681878924369812, 0.03675872087478638, -0.03644417226314545, 
-0.06593167036771774, -0.055348556488752365, -0.010859590023756027, -0.02604491263628006, -0.06599049270153046, 
-0.012747702188789845, -0.049784205853939056, 0.02921295538544655, 0.05168525502085686, 0.051353491842746735, 
-0.03150484338402748, -0.06357254832983017, 0.022200079634785652, -0.046271730214357376, -0.09558678418397903, 
-0.07393953949213028, -0.02823805622756481, -0.019540762528777122, 0.06950216740369797, -0.09081018716096878, 
-0.044605597853660583, -0.018416600301861763, 0.05916937440633774, 0.04250210523605347, -0.029796667397022247, 
0.038551315665245056, 0.04839403182268143, 0.006120562087744474, 0.04725782200694084, 0.0356295220553875, 
-0.0183248370885849, 0.05081576108932495, 0.02734440565109253, 0.04926710203289986, -0.03795721009373665, 
-0.029591713100671768, -0.07799138873815536, 0.060730963945388794, -0.03135804086923599, -0.05030793696641922, 
-0.12258511781692505, -0.11515448987483978, -0.034202590584754944, -0.057470276951789856, 0.02807644195854664, 
-0.014476549811661243, -0.05011892318725586, -0.027612563222646713, 0.05116214603185654, 0.0667944997549057, 
0.026349449530243874, 0.07499489188194275, -0.06200278550386429, -0.02579484134912491, -0.05391811951994896, 
0.035667967051267624, -0.028245950117707253, -0.016123536974191666, -0.04045984894037247, -0.061269715428352356, 
-0.002889014547690749, 0.006191516760736704, -0.07586922496557236, 0.02136394754052162, 0.018145857378840446, 
-0.07381249219179153, -0.04618505761027336, -0.039941973984241486, 0.022005965933203697, 0.053960032761096954, 
-0.06858940422534943, 0.07297632098197937, -0.07539799064397812, 0.0053904056549072266, 0.0718749612569809, 
-0.08092938363552094, 0.04028916731476784, 0.020886505022644997, -0.06003415212035179, 0.003685546340420842, 
0.030710270628333092, -0.035627175122499466, 0.001111810328438878, 0.0325041227042675, 0.0033903142903000116, 
-0.07523521780967712, 0.0015283736865967512, 0.0068433815613389015, 0.003264158498495817, 0.003358637448400259, 
-0.049431540071964264, 0.053300969302654266, -0.011956209316849709, -0.08251947909593582, 0.05390669405460358, 
0.0240942295640707, 0.001033834065310657, 0.027755729854106903, 0.015312311239540577, 0.04165983572602272, 
0.14664867520332336, 0.1605437844991684, 0.15346843004226685, 0.08383268117904663, 0.11548282951116562, 
0.13008826971054077, 0.1634182631969452, 0.1821567714214325, 0.18956756591796875, -0.16593937575817108, 
-0.124736487865448, -0.18328648805618286, -0.10362009704113007, -0.06187926232814789, -0.18814441561698914, 
-0.1925497204065323, -0.22232435643672943, -0.1484052687883377, -0.12612350285053253, 0.010569408535957336, 
0.008549005724489689, 0.0025831679813563824, 0.014521796256303787, 0.08695073425769806, -0.07990878075361252, 
-0.0694451853632927, 0.050792742520570755, 0.04287475720047951, -0.011764262802898884, 0.07320505380630493, 
0.046854134649038315, 0.05755415931344032, 0.04433225467801094, -0.08086645603179932, 0.06907998770475388, 
0.06800699234008789, 0.03578966110944748, -0.0005533572402782738, 0.03516817465424538, 0.05396391451358795, 
-0.03584202006459236, 0.046339426189661026, 0.026965534314513206, 0.04524538293480873, -0.054777465760707855, 
0.07797633111476898, 0.0036069832276552916, 0.00450682220980525, 0.012673955410718918, -0.07089412212371826, 
-0.07589735835790634, 0.036633290350437164, -0.016350848600268364, -0.021379822865128517, 0.021457865834236145, 
-0.002547075506299734, 0.055790264159440994, -0.0778859481215477, 0.03832695633172989, -0.07201626896858215, 
0.057218361645936966, 0.04162004217505455, -0.04477662965655327, 0.049479130655527115, -0.07704056054353714, 
0.02969328500330448, -0.016764666885137558, -0.056250251829624176, -0.07219542562961578, 0.03267781436443329, 
0.03499608859419823, -0.03153904154896736, 0.05169863998889923, -0.0343179851770401, 0.06910950690507889, 
-0.018362268805503845, -0.06124649569392204, 0.022639179602265358, -0.06782359629869461, -0.04208758473396301, 
-0.09879332035779953, -0.06738199293613434, 0.004826901014894247, 0.09554325044155121, -0.08798771351575851, 
-0.01591259241104126, 0.03389277309179306, 0.061178434640169144, 0.041908130049705505, 0.12569375336170197, 
0.15241898596286774, 0.1422608494758606, 0.10455255955457687, -0.07982311397790909, 0.08209384977817535, 
0.09798848628997803, 0.03654204681515694, -0.0686541423201561, 0.03353086858987808, 0.0596560537815094, 
0.010316886939108372, -0.023264849558472633, 0.0008147892658598721, 0.062168899923563004, -0.05723479390144348, 
-0.028891826048493385, 0.007954946719110012, 0.007424110546708107, -0.040992554277181625, -0.020395701751112938, 
0.05424916744232178, -0.051445167511701584, 0.06630560010671616, 0.06356681138277054, 0.06426366418600082, 
-0.04669933393597603, 0.013773933053016663, 0.07853247225284576, 0.06442251801490784, -0.07844007760286331, 
-0.03039642795920372, -0.00830103363841772, -0.017510784789919853, 0.06039043888449669, -0.02040756121277809, 
-0.016879532486200333, -0.012699519284069538, -0.06841578334569931, 0.08121740072965622, 0.012211929075419903, 
-0.0736759826540947, -0.06286715716123581, -0.08367005735635757, 0.0054373666644096375, -0.007777400314807892, 
0.01635679043829441, 0.004414394032210112, -0.040653031319379807, 0.04050262272357941, 0.00731417303904891, 
-0.08809976279735565, 0.06065861135721207, -0.016150621697306633, 0.012535751797258854, -0.00106045079883188, 
0.016494452953338623, -0.04232160001993179, 0.022690260782837868, 0.07975761592388153, -0.019034678116440773, 
-0.21629315614700317, -0.36600878834724426, -0.26078924536705017, -0.0009240774670615792, -0.20290596783161163, 
-0.3176070749759674, -0.18808816373348236, 0.023452678695321083, 0.08978820592164993, -0.09924545884132385, 
0.1474636197090149, 0.2077699899673462, 0.34789741039276123, 0.08029912412166595, 0.2655524015426636, 
0.38923943042755127, 0.261650413274765, 0.21728111803531647, -0.05436398461461067, 0.052459340542554855, 
0.10274658352136612, -0.09295801818370819, -0.14414630830287933, -0.08611947298049927, 0.06851378083229065, 
0.05503943935036659, -0.08158077299594879, 0.022227812558412552, 0.05435554310679436, -0.058087874203920364, 
0.046441782265901566, -0.07443958520889282, -0.05449935421347618, 0.049459755420684814, -0.016108136624097824, 
0.016809094697237015, -0.0021120808087289333, 0.03205222263932228, 0.002445877529680729, 0.0020348255056887865, 
0.01916234940290451, 0.024269379675388336, 0.04419178143143654, 0.017067939043045044, -0.036151960492134094, 
0.06677756458520889, -0.06682103872299194, 0.040056806057691574, 0.05160055309534073, -0.06589159369468689, 
0.019739551469683647, 0.016923369839787483, -0.038453228771686554, 0.0657060518860817, -0.015859413892030716, 
-0.015462463721632957, 0.07677354663610458, 0.0556182786822319, 0.002994938287883997, 0.05566273629665375, 
-0.00089193822350353, -0.05913938954472542, 0.027200104668736458, -0.057691436260938644, 0.037896666675806046, 
-0.04958491772413254, -0.08655401319265366, 0.010871809907257557, 0.0937332883477211, -0.08508958667516708, 
0.03640089929103851, -0.051681406795978546, -0.010911958292126656, 0.04089648649096489, -0.0708833560347557, 
-0.044245947152376175, 0.11160475760698318, -0.050544630736112595, -0.035187698900699615, -0.07621920853853226, 
-0.016901453956961632, 0.12594662606716156, -0.011545384302735329, -0.08699977397918701, -0.1196030005812645, 
0.08019562810659409, 0.1751372069120407, 0.07491830736398697, -0.08056940138339996, -0.10408475250005722, 
0.060657333582639694, 0.1003449559211731, -0.05900190770626068, -0.022127050906419754, -0.0071120113134384155, 
-0.010433080606162548, -0.012280037626624107, -0.017755543813109398, -0.04530046135187149, -0.002353598130866885, 
0.056639619171619415, -0.041586022824048996, -0.03914349526166916, -0.0659913420677185, -0.040050823241472244, 
-0.06044391542673111, -0.02551012672483921, -0.06406164914369583, -0.06876116245985031, -0.07334360480308533, 
-0.0641043484210968, -0.05236801505088806, 0.07347562164068222, 0.0888223722577095, -0.06842516362667084, 
0.025239672511816025, -0.06979471445083618, 0.030416395515203476, 0.028488753363490105, -0.04697869345545769, 
0.06408336758613586, 0.05122761055827141, 0.04446658864617348, -0.022653747349977493, 0.04034660756587982, 
-0.027917439118027687, 0.02262633852660656, 0.0066126873716712, -0.052033476531505585, 0.06012200936675072, 
0.05000046268105507, 0.06672782450914383, -0.0354233980178833, 0.06899367272853851, 0.06456393748521805, 
-0.07298295944929123, -0.08361071348190308, -0.061188336461782455, 0.017696984112262726, -0.035622261464595795, 
0.04237443208694458, 0.05045602470636368, 0.02892407402396202, 0.002851286204531789, -0.03232938051223755, 
0.041824765503406525, -0.05466652289032936, 0.08189947158098221, 0.05464772880077362, -0.0681140124797821, 
0.003849674016237259, 0.1335090696811676, 0.18453964591026306, 0.025463001802563667, -0.1235647201538086, 
-0.14659571647644043, 0.1459958702325821, 0.34646838903427124, 0.037645529955625534, -0.220505952835083, 
-0.16648703813552856, 0.2141689956188202, 0.23165366053581238, 0.09539856761693954, -0.259136825799942, 
-0.0589277520775795, 0.28109174966812134, 0.11277918517589569, -0.0301861260086298, -0.19303110241889954, 
0.11803640425205231, 0.24918696284294128, -0.12962475419044495, -0.23143737018108368, 0.01339920237660408, 
0.05748404189944267, -0.07830691337585449, 0.0275565218180418, 0.06704385578632355, 0.0250935610383749, 
0.04942041262984276, -0.03702965006232262, -0.06366882473230362, 0.012954572215676308, 0.01639626733958721, 
-0.04217404127120972, -0.04979339614510536, -0.006782994605600834, -0.050831183791160583, 0.04804782196879387, 
0.026668956503272057, 0.04740287363529205, -0.07205893099308014, 0.024234024807810783, 0.055830106139183044, 
-0.07815597951412201, 0.021433530375361443, -0.017569370567798615, 0.01811921037733555, 0.061907488852739334, 
0.0433322973549366, -0.024032996967434883, 0.03849660977721214, 0.07695730775594711, -0.012933402322232723, 
-0.04591327905654907, -0.06974511593580246, 0.011497734114527702, 0.08522475510835648, -0.005586516577750444, 
0.060283321887254715, 0.021316275000572205, 0.04183522239327431, 0.09377232193946838, 0.03759842738509178, 
-0.07762020081281662, 0.06041089817881584, 0.07911975681781769, -0.05432360991835594, 0.015699535608291626, 
-0.08655981719493866, -0.06446489691734314, 0.037726663053035736, -0.07397601008415222, 0.07322056591510773, 
0.018223265185952187, 0.07363399863243103, -0.028724802657961845, 0.05350615456700325, 0.012322410941123962, 
0.056766461580991745, 0.133362278342247, 0.11537571251392365, 0.137759730219841, -0.11138808727264404, 
-0.007563915569335222, -0.12119437009096146, 0.03116357885301113, 0.009293803945183754, -0.12143608927726746, 
-0.04939506947994232, -0.1146269217133522, -0.04571007564663887, -0.07629693299531937, -0.05599299073219299, 
-0.006434254348278046, 0.06712614744901657, -0.023441139608621597, -0.03545205295085907, -0.07213842868804932, 
-0.003311238018795848, 0.0627455785870552, -0.017422722652554512, 0.07936977595090866, 0.0012429066700860858, 
-0.04010320454835892, -0.03535788878798485, -0.015031064860522747, 0.003888355568051338, -0.0668240562081337, 
0.02622067742049694, -0.04136586934328079, 0.07754681259393692, 0.04078948497772217, -0.009101182222366333, 
-0.022143492475152016, 0.03214278444647789, 0.012986941263079643, 0.056195374578237534, -0.05270702764391899, 
0.0183400996029377, 0.027712369337677956, 0.01150461658835411, -0.06155707687139511, 0.0034744793083518744, 
-0.04424057528376579, 0.021946946159005165, -0.04982192441821098, -0.048670824617147446, 0.05038169398903847, 
-0.027199851348996162, -0.02212420664727688, 0.06972049921751022, -0.032455865293741226, 0.012159079313278198, 
0.034109536558389664, -0.07748227566480637, 0.0013444785727187991, -0.04770318791270256, -0.06965785473585129, 
0.04807046428322792, 0.0756760984659195, -0.024169985204935074, 0.040394753217697144, -0.06173890084028244, 
0.0004364089691080153, 0.027777638286352158, -0.016213849186897278, 0.03634655103087425, 0.0657384842634201, 
0.1915898621082306, 0.27394402027130127, 0.14838652312755585, 0.17058543860912323, 0.12668012082576752, 
0.18321385979652405, 0.15470309555530548, 0.14534305036067963, 0.08632872253656387, -0.20638267695903778, 
-0.2261352837085724, -0.29661861062049866, -0.07573268562555313, -0.049360182136297226, -0.10781204700469971, 
-0.25344088673591614, -0.23390989005565643, -0.11845424771308899, -0.07547137141227722, 0.08738069236278534, 
0.14565888047218323, 0.017052650451660156, 0.09537460654973984, 0.11111421138048172, -0.01605176366865635, 
-0.049695082008838654, -0.06254300475120544, 0.06872440874576569, 0.04620050638914108, -0.03372200205922127, 
-0.057410385459661484, -0.042112838476896286, 0.037230148911476135, -0.06294310837984085, 0.007175291422754526, 
-0.04697412624955177, 0.07067208737134933, -0.0010897599859163165, -0.04589352756738663, 0.014100927859544754, 
0.0197762344032526, -0.0711802989244461, -0.019540568813681602, 0.02553369291126728, -0.0186196006834507, 
-0.0553869903087616, 0.03890271112322807, -0.03287171572446823, 0.025015123188495636, -0.03996242582798004, 
0.0281271580606699, -0.01654961332678795, 0.03116396628320217, -0.05952482298016548, -0.07145193219184875, 
-0.004619710613042116, 0.06939596682786942, 0.032824039459228516, -0.061106108129024506, -0.06921064853668213, 
0.023449072614312172, -0.05872480571269989, -0.05055887624621391, 0.05943588539958, 0.05437004566192627, 
0.08735747635364532, -0.05413883924484253, -0.02774321846663952, -0.005324165336787701, -0.07013319432735443, 
0.06271364539861679, 0.005260314326733351, 0.08290550112724304, -0.027688918635249138, 0.014806465245783329, 
0.139850452542305, 0.12443829327821732, -0.029155299067497253, -0.03890521079301834, 0.012276794761419296, 
0.12484575808048248, 0.07631367444992065, 0.06470642238855362, -0.08594629913568497, -0.150565043091774, 
-0.02369735948741436, 0.004472556058317423, -0.04359550029039383, 0.02937188372015953, -0.15339305996894836, 
-0.14132104814052582, 0.057819779962301254, -0.009810167364776134, 0.033359285444021225, -0.05593901872634888, 
0.03581210598349571, 0.08826307207345963, 0.07605409622192383, 0.017177563160657883, 0.010721081867814064, 
-0.029587771743535995, -0.05068604648113251, 0.049367036670446396, -0.0670924186706543, 0.009842479601502419, 
-0.02345912531018257, -0.06952151656150818, -0.07074164599180222, -0.07608508318662643, -0.07947210967540741, 
0.021082954481244087, 0.054665349423885345, -0.03757748380303383, -0.0795091837644577, 0.06801667809486389, 
0.038643818348646164, 0.006299694534391165, -0.015966299921274185, 0.001577805494889617, -0.05355090647935867, 
-0.010326379910111427, -0.06375467777252197, 0.08362651616334915, 0.08357744663953781, 0.027346085757017136, 
0.038503196090459824, 0.008132281713187695, 0.02822655625641346, -0.05689159780740738, -0.012468711473047733, 
0.04933875426650047, -0.03412611782550812, -0.01582283340394497, 0.07897897064685822, -0.03448326140642166, 
0.03399619832634926, -0.03897559642791748, 0.0165397971868515, 0.07655427604913712, 0.06244570389389992, 
0.039965275675058365, 0.02904088981449604, 0.0024918352719396353, -0.06775126606225967, -0.07179287075996399, 
-0.07391014695167542, -0.03668705001473427, -0.06516958028078079, -0.062012843787670135, 0.013382949866354465, 
0.11329571902751923, 0.3112562894821167, 0.1277485191822052, -0.03194695711135864, -0.049874015152454376, 
0.04698751121759415, 0.2218775451183319, 0.2109639048576355, -0.027650879696011543, -0.30576837062835693, 
-0.31887388229370117, 0.031556859612464905, 0.21272574365139008, 0.03159864619374275, -0.2523694634437561, 
-0.21085205674171448, 0.10017390549182892, 0.2987281382083893, 0.1511698067188263, -0.05589471012353897, 
-0.13684450089931488, 0.16282254457473755, 0.12447065860033035, 0.13870100677013397, -0.026513371616601944, 
0.053569093346595764, 0.02706914395093918, 0.010646440088748932, -0.0515596978366375, -0.044717878103256226, 
0.013706742785871029, 0.05734671652317047, -0.0678911879658699, -0.07536498457193375, 0.014471401460468769, 
0.003760608611628413, 0.011434211395680904, 0.06459329277276993, 0.034212786704301834, -0.02207196317613125, 
0.07288453727960587, -0.07028315216302872, -0.05508747696876526, 0.05510101467370987, -0.06716687977313995, 
0.03604409843683243, -0.04159857705235481, 0.049100611358881, 0.015364335849881172, -0.048639725893735886, 
-0.002389472909271717, -0.07849247753620148, -0.00018783360428642482, -0.03657780960202217, 0.06386993080377579, 
-0.048106733709573746, -0.01201627030968666, -0.0334903858602047, -0.042674239724874496, -0.012971261516213417, 
-0.038709644228219986, -0.08134154975414276, -0.0067391288466751575, -0.013170965015888214, 0.02272045612335205, 
0.023509249091148376, -0.06025378033518791, 0.03950389474630356, 0.03157282620668411, 0.018952451646327972, 
-0.022649133577942848, -0.06795724481344223, -0.04695875197649002, 0.040968913584947586, 0.07355212420225143, 
0.09240682423114777, 0.16344961524009705, 0.12975789606571198, -0.03785773739218712, 0.059997376054525375, 
-0.038289688527584076, -0.07649092376232147, 0.004573847632855177, -0.0387454628944397, -0.13456910848617554, 
-0.12432155013084412, -0.23406332731246948, -0.03229474276304245, -0.01969645358622074, 0.030414529144763947, 
0.043868668377399445, -0.062208142131567, -0.015410816296935081, 0.11424247920513153, 0.18364590406417847, 
0.09949111938476562, 0.08017050474882126, 0.07919315248727798, 0.037251442670822144, 0.037005748599767685, 
0.07019562274217606, 0.012168840505182743, 0.05079952999949455, 0.08610440790653229, 0.014987037517130375, 
-0.02967912144958973, -0.019518762826919556, -0.04810596629977226, 0.07657910883426666, -0.050896018743515015, 
-0.016115041449666023, -0.08039125800132751, -0.058923400938510895, -0.03068852238357067, 0.057241737842559814, 
-0.08774693310260773, -0.046095263212919235, -0.0621708482503891, -0.015747932717204094, -0.0020365030504763126, 
0.022597536444664, 0.008450531400740147, 0.06386859714984894, -0.06638409942388535, -0.05649259313941002, 
-0.04283247888088226, -0.02981817163527012, 0.07137417048215866, -0.02664337120950222, 0.030016068369150162, 
-0.043118249624967575, 0.01907537691295147, -0.04660244286060333, -0.06950848549604416, -0.040439046919345856, 
-0.05387411639094353, -0.0802326425909996, -0.07527817040681839, -0.08113550394773483, 0.004404779523611069, 
0.020165560767054558, 0.07036130130290985, -0.013501455076038837, -0.07843228429555893, 0.039500266313552856, 
-0.08303702622652054, 0.078152135014534, 0.01671377569437027, 0.06984997540712357, 0.147699236869812, 
0.1843515932559967, 0.19988861680030823, 0.03713933750987053, -0.0005352896405383945, -0.1345149576663971, 
-0.22123640775680542, -0.3551269769668579, -0.23196373879909515, -0.2131107598543167, -0.1401912271976471, 
-0.36271172761917114, -0.4683589041233063, -0.17589795589447021, 0.019957952201366425, 0.10729312151670456, 
0.01166285015642643, 0.12989239394664764, 0.34560340642929077, 0.31141969561576843, 0.20204564929008484, 
0.34108293056488037, 0.28955399990081787, 0.32132402062416077, 0.03282105177640915, -0.03898564353585243, 
0.031297385692596436, -0.043091822415590286, -0.04973258823156357, 0.0805889144539833, -0.06398564577102661, 
-0.07107733190059662, 0.07739265263080597, -0.008319455198943615, 0.07619106024503708, 0.015492199920117855, 
-0.08027078956365585, -0.07080187648534775, -0.042969558387994766, -0.040793146938085556, 0.019232135266065598, 
0.0323457233607769, 0.04593745246529579, -0.07329793274402618, 0.018833812326192856, -0.01959393545985222, 
0.017945580184459686, 0.0446835532784462, 0.061089348047971725, 0.025482608005404472, 0.013013794086873531, 
0.05773539841175079, -0.0006372990901581943, 0.005910105537623167, -0.03453801944851875, 0.06420272588729858, 
-0.024650363251566887, -0.03253627568483353, -0.0017476131906732917, 0.0007601266843266785, 0.021478116512298584, 
0.027949269860982895, 0.00471351807937026, -0.018687034025788307, -0.013246131129562855, 0.02772710472345352, 
0.037940412759780884, -0.0677923709154129, 0.05209784582257271, -0.0016754517564550042, -0.0026754699647426605, 
0.0034479168243706226, -0.020024631172418594, 0.06605061143636703, 0.08517877757549286, -0.01871553063392639, 
0.006697709206491709, -0.005609033163636923, 0.045875195413827896, -0.03883728012442589, -0.004998060874640942, 
-0.005141199100762606, -0.00826301146298647, 0.021358903497457504, 0.007192573044449091, -0.03985853120684624, 
-0.027478093281388283, -0.013479477725923061, -0.04937104135751724, -0.026547102257609367, 0.04478247091174126, 
0.0068021249026060104, 0.008623523637652397, -0.045598868280649185, 0.036469802260398865, -0.02197319082915783, 
0.039741192013025284, -0.03993069753050804, -0.006217623129487038, 0.028343627229332924, 0.02172321081161499, 
-0.026579689234495163, -0.02862374112010002, 0.02106427401304245, -0.01733599603176117, -0.049503862857818604, 
0.005338956601917744, -0.007550794165581465, 0.026952235028147697, 0.005959398578852415, 0.04490656405687332, 
0.029273472726345062, 0.045633465051651, -0.0531454011797905, -0.050713974982500076, 0.003637149930000305, 
0.01312506478279829, -0.04127736762166023, 0.024147605523467064, -0.034149013459682465, -0.03147448971867561, 
-0.02628745697438717, -0.03354674205183983, -0.018361015245318413, 0.015627136453986168, 0.011782214976847172, 
0.032671473920345306, 0.0015813164645805955, -0.00251841195859015, -0.03468377888202667, 0.027411218732595444, 
0.012794625014066696, -0.021132441237568855, -0.02059239149093628, -0.025723807513713837, 0.03765561059117317, 
0.02745450660586357, -0.050976019352674484, -0.05355704575777054, -0.016757158562541008, -0.02861236408352852, 
-0.022195952013134956, -0.03488916903734207, 0.04453176259994507, -0.03886508196592331, 0.027526145800948143, 
0.01644338108599186, 0.027277259156107903, -0.017484132200479507, -0.013027053326368332, 0.0033686631359159946, 
-0.0050123012624681, -0.013291779905557632, -0.00444025220349431, -0.024359282106161118, -0.029178710654377937, 
-0.00508789112791419, -0.04550560563802719, -0.011066368781030178, -0.029439490288496017, -0.01297887321561575, 
-0.013324773870408535, 0.035459406673908234, -0.006539257243275642, -0.022714896127581596, -0.05000157281756401, 
-0.023835277184844017, 0.0008109030313789845, 0.007467040326446295, 0.018943650647997856, 0.04663357883691788, 
0.03650214150547981, -0.020990323275327682, 0.012926381081342697, 0.03154071047902107, 0.04385315626859665, 
0.03273193538188934, 0.008558717556297779, 0.032553866505622864, 0.04868736490607262, -0.042514506727457047, 
0.034595951437950134, 0.043343499302864075, -0.02384963631629944, 0.04591871425509453, 0.03800595551729202, 
-0.026648102328181267, -0.02151503600180149, 0.04222802445292473, -0.04724143072962761, -0.026963606476783752, 
-0.02455473132431507, -0.017337623983621597, -0.027418984100222588, 0.04435691237449646, 0.03232741355895996, 
-0.04693462327122688, -0.02932070940732956, 0.029661456122994423, 0.02079969458281994, -0.009787628427147865, 
0.02494301088154316, -0.010225977748632431, -0.03483668714761734, -0.03618108853697777, -0.04722105339169502, 
-0.00937054306268692, 0.009757227264344692, 0.011764000169932842, -0.04925217851996422, -0.013066322542726994, 
-0.026130322366952896, -0.024025628343224525, 0.04580322280526161, 0.032355789095163345, 0.03342229872941971, 
-0.026524296030402184, 0.0019596628844738007, 0.03151249885559082, -0.04619334638118744, 0.03688986971974373, 
-0.02735603041946888, -0.023543640971183777, 0.0022952186409384012, -0.013518699444830418, -0.001701652305200696, 
-0.029401937499642372, 0.021142279729247093, 0.03235776349902153, 0.002433605957776308, -0.0424184687435627, 
0.03593495488166809, -0.02669132873415947, -0.01481382455676794, 0.025226015597581863, -0.0028893498238176107, 
0.023251429200172424, -0.004474360030144453, -0.017319560050964355, -0.0038995491340756416, -0.02480114810168743, 
0.03962426632642746, 0.003253298345953226, 0.025774599984288216, -0.03304062411189079, -0.006594490259885788, 
-0.003746866248548031, 0.022307883948087692, -0.037565987557172775, 0.003107577096670866, -0.04281659051775932, 
0.0256241075694561, -0.0102667436003685, 0.027146175503730774, -0.04249344766139984, 0.002812290098518133, 
0.04985291138291359, 0.006233694031834602, -0.024135135114192963, 0.012683913111686707, 0.04225938394665718, 
0.007701386231929064, -0.006274357903748751, -0.003579213749617338, 0.035780299454927444, 0.016854334622621536, 
0.019548475742340088, 0.014310510829091072, -0.006971997208893299, -0.03715254366397858, -0.027581464499235153, 
-0.03378625959157944, -0.010602627880871296, 0.02702770009636879, -0.0004783934564329684, 0.009348255582153797, 
0.014934509992599487, -0.0486309751868248, -0.005068517290055752, -0.018750440329313278, -0.04726555943489075, 
0.00841275043785572, 0.01707269437611103, -0.008424941450357437, 0.042625997215509415, 0.013303129933774471, 
-0.02894921600818634, 0.04358946532011032, 0.02786853536963463, 0.013549893163144588, 0.040387753397226334, 
-0.03930601477622986, 0.039365846663713455, -0.0006883524474687874, 0.04495440796017647, -0.0482277050614357, 
0.012144693173468113, 0.028764639049768448, 0.04443326219916344, 0.013891835696995258, 0.019605983048677444, 
0.02488771639764309, 0.02814185619354248, 0.03879305720329285, -0.005593995098024607, -0.013889364898204803, 
-0.0374479666352272, 0.04598619416356087, 0.0029597964603453875, 0.010400348342955112, 0.025250649079680443, 
-0.04123975709080696, -0.016155904158949852, -0.04276050627231598, -0.00809087697416544, -0.04907170310616493, 
0.03814639896154404, -0.048587143421173096, -0.02846568450331688, -0.04553315043449402, -0.0457361564040184, 
0.024532988667488098, -0.002118020784109831, -0.029374076053500175, -0.014142997562885284, -0.012151006609201431, 
-0.04464585334062576, 0.015037637203931808, 0.003701662877574563, 0.0012720356462523341, 0.01253495179116726, 
-0.015479201450943947, 0.03799457475543022, -0.007564813829958439, 0.019764116033911705, 0.0029449122957885265, 
-0.04766137897968292, 0.031190257519483566, -0.0007195082143880427, -0.03337663412094116, -0.034035202115774155, 
-0.012714670971035957, -0.020835943520069122, 0.011802088469266891, -0.03332117199897766, -0.049558013677597046, 
-0.038577593863010406, -0.02729266695678234, -0.037111926823854446, 0.0122591033577919, -0.00870652124285698, 
0.00778008671477437, -0.02279946580529213, -0.021369285881519318, -0.00269069941714406, 0.010716504417359829, 
0.03342989832162857, -0.036869730800390244, -0.03572823479771614, 0.00575660914182663, -0.03300667926669121, 
-0.015095801092684269, -0.011545529589056969, 0.03421228751540184, -0.03157271817326546, 0.02342856675386429, 
0.010581398382782936, -0.04382936283946037, 0.03744334727525711, -0.032328277826309204, -0.006546935997903347, 
0.017970183864235878, -0.04819658026099205, 0.04013413190841675, 0.04810069501399994, 0.03858744353055954, 
-0.02179403230547905, -0.0138722974807024, 0.04566476494073868, -0.04592673107981682, 0.014543410390615463, 
0.02530619502067566, -0.0411812886595726, -0.04586624354124069, -0.0008615818805992603, -0.01644904538989067, 
-0.03022255375981331, -0.03650961443781853, 0.04308588057756424, -0.037664640694856644, 0.00020539779507089406, 
0.024411039426922798, -0.033442478626966476, -0.0035185401793569326, -0.0475870743393898, -0.008283722214400768, 
0.0013459601905196905, 0.03793216496706009, 0.01981472596526146, -0.043824534863233566, -0.01920701190829277, 
0.041959941387176514, -0.04685191437602043, 0.011127705685794353, 0.04668182134628296, -0.00920592900365591, 
0.0023222060408443213, -0.02285948395729065, -0.025908323004841805, 0.044815223664045334, 0.01567346416413784, 
0.030860334634780884, -0.019178908318281174, -0.04633388668298721, -0.028892893344163895, -0.04238444194197655, 
0.0015424044104292989, 0.03460243344306946, 0.04215047135949135, -0.00668053375557065, 0.025030363351106644, 
-0.040361858904361725, -0.005300450138747692, -0.035200439393520355, 0.049614448100328445, -0.02827662043273449, 
0.01309240609407425, 0.01707368716597557, -0.04125585779547691, 0.028189411386847496, 0.036174315959215164, 
-0.031641632318496704, -0.00013567977293860167, -0.011606801301240921, 0.009050264954566956, 0.03288862854242325, 
-0.028150266036391258, 0.03148134797811508, -0.031150732189416885, -0.003044859739020467, 0.0041221734136343, 
0.012416931800544262, -0.048715926706790924, 0.03428683057427406, -0.024195611476898193, -0.01808208040893078, 
-0.019997568801045418, -0.04837469011545181, -0.028888676315546036, 0.0253059733659029, 0.0077409869991242886, 
-0.04133635386824608, 0.04582516849040985, -0.016982221975922585, -0.00040076381992548704, 0.006635063793510199, 
-0.02733922377228737, 0.0489194430410862, 0.04369525611400604, -0.0010293669765815139, -0.03184618800878525, 
0.03687132149934769, 0.00475040590390563, 0.045773036777973175, 0.04015371575951576, -0.019540976732969284, 
-0.017655538395047188, -0.02635018713772297, 0.004995271097868681, -0.042267095297575, -0.004527617711573839, 
0.03684910386800766, -0.023712292313575745, -0.03742086887359619, -0.030385607853531837, -0.0003751718904823065, 
0.019402461126446724, -0.01262721884995699, -0.006950154434889555, -0.02592300996184349, 0.002445036079734564, 
0.006118094082921743, -0.009858639910817146, 0.007748894393444061, -0.02672356553375721, -0.023157553747296333, 
0.01954852230846882, 0.003421219764277339, 0.0483408197760582, -0.020038316026329994, 0.029497375711798668, 
0.039323076605796814, -0.025170274078845978, 0.024352090433239937, 0.0437377505004406, 0.015222645364701748, 
-0.039038825780153275, 0.027180716395378113, -0.029054664075374603, -0.012694325298070908, 0.02594751864671707, 
0.05840383470058441, 0.04792630672454834, -0.03846312314271927, -0.029499897733330727, 0.0259996484965086, 
0.08315571397542953, 0.08282241225242615, 0.046706441789865494, -0.08680690824985504, 0.03084084391593933, 
-0.0049044121988117695, -8.29097771202214e-05, 0.06409789621829987, -0.04473956674337387, 0.013282892294228077, 
-0.0283693578094244, -0.024960463866591454, 0.021370461210608482, -0.022085033357143402, -0.004115953575819731, 
-0.035565733909606934, -0.031185466796159744, -0.02670411579310894, -0.015298014506697655, 0.06707500666379929, 
-0.015164059586822987, 0.0713527724146843, -0.045088157057762146, -0.13405665755271912, 0.019262777641415596, 
0.029479406774044037, 0.03282050043344498, -0.03560865670442581, -0.10014431923627853, 0.00038975823554210365, 
-0.01805042289197445, -0.03063529171049595, 0.10500316321849823, 0.011907398700714111, -0.041523780673742294, 
-0.028112372383475304, 0.001548785250633955, 0.024127842858433723, 0.030066998675465584, -0.06775728613138199, 
-0.017629219219088554, 0.04831681028008461, -0.017330214381217957, 0.019198259338736534, 0.008628295734524727, 
-0.04480384662747383, -0.026623498648405075, 0.03436773642897606, -0.062160152941942215, 0.020933697000145912, 
-0.06277967989444733, -0.05228660628199577, -0.008313042111694813, -0.018018437549471855, -0.014566794037818909, 
-0.007375222630798817, -0.03118942119181156, 0.048296187072992325, -0.008278246968984604, 0.015561068430542946, 
-0.023997625336050987, 0.05858184024691582, -0.009793905541300774, 0.04077813774347305, -0.03534846007823944, 
-0.036850735545158386, -0.0195342805236578, 0.023411624133586884, 0.003770162584260106, -0.0317477248609066, 
0.08444719016551971, -0.030416587367653847, -0.028425071388483047, -0.09431041032075882, 0.032074980437755585, 
0.0004540304944384843, -0.0008968457113951445, 0.03600643575191498, 0.023679830133914948, -0.01465291902422905, 
0.005326325539499521, -0.027601905167102814, -0.026422766968607903, -0.04517414793372154, -0.06529364734888077, 
0.0063929264433681965, 0.0414373017847538, 0.02710609696805477, 0.009358357638120651, 0.011914047412574291, 
0.029596779495477676, 0.020882241427898407, -0.01576370559632778, -0.01400469709187746, 0.04105797037482262, 
-0.01257956400513649, 0.042529474943876266, -0.013211702927947044, 0.0384363979101181, 0.009918988682329655, 
0.01259027048945427, 0.026365313678979874, -0.0025050414260476828, -0.02166854776442051, 0.03183573856949806, 
-0.0019016832811757922, -0.003833482973277569, 0.0023463198449462652, 0.006662384606897831, -0.017533591017127037, 
0.05526347458362579, -0.01049307081848383, 0.02580675110220909, 0.028773637488484383, -0.048755377531051636, 
-0.0003426308394409716, 0.022865524515509605, 0.01644193008542061, 0.02165500447154045, -0.04858745262026787, 
-0.05005635321140289, -0.011127433739602566, 0.023204181343317032, 0.04106811061501503, 0.04496123641729355, 
-0.045663878321647644, 0.04594475403428078, 0.02269178070127964, 0.00512748071923852, -0.040785111486911774, 
0.022677142173051834, -0.032424259930849075, -0.027278615161776543, 0.01713506691157818, -0.02189483307301998, 
-0.03376033529639244, 0.020965902134776115, -0.04415174946188927, -0.005995521321892738, 0.03111543506383896, 
0.008478784933686256, 0.02808845043182373, -0.039007145911455154, -0.022711409255862236, -0.028699448332190514, 
0.01684284210205078, 0.024002812802791595, 0.040776319801807404, -0.004246074240654707, 0.012747108936309814, 
-0.05244099721312523, -0.04494698718190193, 0.05363595485687256, -0.04860541224479675, -0.020452173426747322, 
0.03457547351717949, 0.006488575600087643, 0.03064338117837906, -0.013938811607658863, 0.04402555897831917, 
-0.023210175335407257, -0.03748178482055664, 0.008967644535005093, -0.0046530007384717464, -0.029994932934641838, 
-0.009660187177360058, -0.017499595880508423, -0.013433926738798618, 0.04315083846449852, 0.05574265122413635, 
-0.013722080737352371, -0.04355506971478462, -0.00732012465596199, -0.02522900328040123, 0.03328214958310127, 
0.013237462379038334, -0.07740195095539093, -0.018860286101698875, 0.03405337035655975, -0.013531315140426159, 
-0.016957683488726616, 0.06162054464221001, 0.04064163565635681, -0.039896272122859955, 0.029255449771881104, 
-0.023248514160513878, 0.030652448534965515, -0.003917042165994644, -0.018991829827427864, 0.028324907645583153, 
0.05566420406103134, -0.012555972672998905, -0.04867301881313324, -0.04556294158101082, -0.04193846136331558, 
-0.03638318553566933, -0.058228157460689545, -0.08620253205299377, -0.1275024116039276, 0.033170655369758606, 
0.00965908169746399, -0.040226224809885025, 0.06434990465641022, 0.025284001603722572, 0.03243346884846687, 
0.04102328047156334, 0.016100546345114708, 0.07097878307104111, 0.03224104270339012, -0.04351118206977844, 
-0.04707016050815582, 0.0019513588631525636, -0.0014141829451546073, 0.02770056016743183, -0.00019904010696336627, 
0.0019261296838521957, -0.024699898436665535, 0.03309999033808708, -0.04002020135521889, 0.008140110410749912, 
0.01573079824447632, -0.008074630051851273, 0.025591887533664703, -0.013433205895125866, 0.00044361239997670054, 
0.058305542916059494, -0.031187616288661957, 0.038434889167547226, 0.002744146157056093, 0.016873162239789963, 
0.023150041699409485, -0.02436891943216324, -0.05212914198637009, 0.013044362887740135, 0.020070046186447144, 
0.0013939839554950595, -0.0313803106546402, 0.008236226625740528, -0.030196048319339752, 0.0032537749502807856, 
-0.012053336948156357, 0.03205253928899765, -0.007222020998597145, 0.06809593737125397, 0.03354611247777939, 
-0.008296478539705276, 0.007481892593204975, -0.015572340227663517, -0.07834667712450027, -0.016448112204670906, 
0.05798327922821045, 0.020548800006508827, 0.03178488835692406, 0.03643382340669632, 0.031245388090610504, 
-0.011389399878680706, 0.054839156568050385, -0.027402710169553757, -0.030916672199964523, 0.01768958754837513, 
0.002976898569613695, 0.005787856411188841, 0.004222543444484472, -0.027442514896392822, -0.030279921367764473, 
-0.06195543706417084, -0.003171253949403763, -0.03605487197637558, 0.006975769530981779, 0.013363724574446678, 
0.02335866540670395, -0.04566043242812157, -0.07145397365093231, -0.07919175177812576, -0.016663240268826485, 
-0.03672657534480095, 0.05237921327352524, -0.04963371157646179, 0.02256901189684868, -0.02875225432217121, 
-0.03555117920041084, 0.026407301425933838, -6.116639269748703e-06, 0.019843557849526405, -0.02772632986307144, 
-0.04322092607617378, 0.04111886024475098, -0.01214003935456276, 0.021971244364976883, -0.05526586249470711, 
0.030599087476730347, -0.023662226274609566, 0.025277631357312202, -0.03320123627781868, -0.004665255546569824, 
0.007953085005283356, 0.013978533446788788, 0.013698303140699863, -0.00833616778254509, 0.0036354367621243, 
0.06332917511463165, -0.024652758613228798, 0.0328005775809288, 0.023525560274720192, 0.06235716491937637, 
-0.034652773290872574, 0.05035347118973732, -0.04405347630381584, -0.047973401844501495, -0.053063780069351196, 
-0.009562041610479355, -0.032281383872032166, -0.05339985713362694, -0.04572915658354759, -0.011929694563150406, 
-0.032764848321676254, 0.04158638417720795, 0.022620994597673416, 0.052265577018260956, 0.017469659447669983, 
0.03876184672117233, 0.010290838778018951, 0.030012626200914383, -0.058305151760578156, -0.038885995745658875, 
-0.017084812745451927, -0.008634276688098907, 0.07394062727689743, 0.02547599747776985, 0.05756155401468277, 
-0.020744360983371735, 0.07275707274675369, 0.022647885605692863, -0.039183106273412704, -0.04932175576686859, 
0.003247393760830164, -0.008197338320314884, -0.026279393583536148, -0.05964244157075882, -0.018809432163834572, 
0.05360061302781105, 0.07985953241586685, 0.023058749735355377, 0.04747522622346878, 0.010958559811115265, 
0.04340572655200958, 0.0431562215089798, -0.031745944172143936, -0.02441166527569294, 0.033894121646881104, 
-0.029168225824832916, 0.02089008316397667, 0.0202108696103096, -0.031712550669908524, 0.016610562801361084, 
0.04420061036944389, 0.034450504928827286, -0.04543643817305565, -0.052459437400102615, 0.0016049621626734734, 
0.012114430777728558, -0.028319740667939186, 0.02659469284117222, 0.02159307897090912, 0.027645422145724297, 
-0.024555757641792297, -0.00885707512497902, 0.008037569001317024, 0.020503250882029533, 0.033215440809726715, 
-0.00458780862390995, 0.04232989624142647, -0.01887233927845955, 0.0020942508708685637, 0.04504949226975441, 
-0.03252341225743294, -0.03625919297337532, -0.029566189274191856, 0.031311165541410446, -0.011842658743262291, 
0.007005327381193638, 0.007441420573741198, -0.02915230765938759, -0.021913088858127594, 0.037307463586330414, 
0.03081013262271881, -0.011517859995365143, 0.020700128749012947, 0.03465692326426506, 0.01777523010969162, 
0.004929985385388136, 0.008366468362510204, 0.0325436145067215, -0.01118466816842556, -0.041811730712652206, 
0.007929095067083836, -0.027939604595303535, -0.05412837117910385, -0.0002750090789049864, 0.04426557570695877, 
0.046504490077495575, -0.00763700669631362, -0.04691218212246895, -0.06672677397727966, 0.058266010135412216, 
0.020799556747078896, 0.06261177361011505, -0.040341202169656754, 0.08551871031522751, -0.046267978847026825, 
-0.008547086268663406, 0.011095407418906689, 0.03262884542346001, 0.0071113514713943005, -0.06203530356287956, 
-0.05042283236980438, 0.015560198575258255, -0.020542562007904053, 0.025744648650288582, -0.046928707510232925, 
-0.04289532080292702, 0.024112781509757042, 0.0012304072733968496, 0.05133520066738129, -0.0220759529620409, 
0.07482071965932846, 0.03448283299803734, 0.04209064319729805, 0.09902996569871902, 0.07628615945577621, 
0.1043325737118721, 0.03346014767885208, -0.014275813475251198, -0.02909225784242153, -0.06630375236272812, 
0.02946476638317108, -0.046620383858680725, 0.03434723615646362, -0.02447132021188736, -0.016589613631367683, 
-0.025120466947555542, -0.02269846759736538, 0.053050555288791656, 0.0017828239360824227, 0.010704419575631618, 
-0.035581301897764206, 0.019809827208518982, -0.06817039102315903, 0.0012168760877102613, -0.019880760461091995, 
-0.010676249861717224, -0.017910616472363472, -0.026470141485333443, 0.026090575382113457, 0.04938690364360809, 
0.0088812205940485, -0.01622219942510128, 0.057951029390096664, 0.010880601592361927, -0.033821940422058105, 
0.04082530736923218, -0.03395599126815796, 0.03785906732082367, 0.001355926156975329, -0.053091198205947876, 
-0.026972297579050064, -0.008630005642771721, -0.020095502957701683, 0.04607534408569336, 0.04381639137864113, 
-0.03219406679272652, -0.045638635754585266, -0.001897138194181025, -0.019128981977701187, 0.0507039837539196, 
0.003821135964244604, 0.06861968338489532, 0.026190094649791718, 0.009676231071352959, -0.015495740808546543, 
-0.00011065991566283628, -0.04461865499615669, -0.04492470994591713, -0.028106113895773888, -0.039248742163181305, 
-0.0685935989022255, 0.006454269867390394, 0.06924193352460861, -0.004939858801662922, -0.03863058611750603, 
0.023793252184987068, 0.0144156813621521, 0.07218720763921738, 0.02966570481657982, -0.017027441412210464, 
-0.035534314811229706, -0.03360440582036972, 0.004204643424600363, 0.009813075885176659, 0.05121144279837608, 
-0.0012251376174390316, -0.001554967719130218, 0.0008103976724669337, -0.0018494674004614353, 0.026679016649723053, 
-0.010575599037110806, -0.03776858001947403, 0.028287064284086227, -0.03927129507064819, -0.03522724285721779, 
0.011374146677553654, 0.04224260151386261, -0.017290838062763214, -0.02525971084833145, 0.023279866203665733, 
0.027058875188231468, -0.02771930769085884, -0.04417216777801514, 0.005060627590864897, -0.032375797629356384, 
-0.014915941283106804, 0.04279005527496338, -0.010460760444402695, 0.038191962987184525, -0.042739108204841614, 
-0.008367550559341908, 0.008905559778213501, -0.01599971577525139, 0.0015808893367648125, -0.03410328924655914, 
0.02999051846563816, -0.016249222680926323, -0.023918546736240387, -0.0415940061211586, 0.03096035122871399, 
0.0117972232401371, 0.006232022773474455, -0.038481175899505615, 0.036564625799655914, 0.02414875105023384, 
0.04681037738919258, 0.04425382614135742, 0.03802673518657684, 0.030259789898991585, 0.008809652179479599, 
0.010320866480469704, 0.008419506251811981, 0.045032698661088943, 0.041230153292417526, 0.038836125284433365, 
-0.010886277072131634, 0.024445276707410812, -0.026641512289643288, -0.03468281030654907, 0.0472644679248333, 
-0.0436599925160408, 0.03076942078769207, -0.029248233884572983, 0.020540472120046616, -0.05258156731724739, 
0.014124758541584015, -0.05627783387899399, -0.009563849307596684, 0.06103621423244476, 0.003399098990485072, 
0.015784194692969322, -0.0050931102596223354, -0.020843975245952606, -0.0035031232982873917, 0.02555909752845764, 
0.025769932195544243, 0.035781558603048325, 0.05359790474176407, 0.07420747727155685, 0.003457398386672139, 
0.01896330527961254, 0.04367959871888161, -0.012361823581159115, 0.01680712401866913, 0.012771259061992168, 
0.017951687797904015, 0.04967736452817917, 0.02525423839688301, -0.05284981429576874, 0.04555409401655197, 
0.0016272645443677902, 0.02887038327753544, -0.03008388914167881, 0.03265335038304329, 0.03431956470012665, 
0.02234763838350773, -0.009807754307985306, -0.013001312501728535, 0.01582254469394684, 0.017932236194610596, 
-0.01913081295788288, 0.01971350610256195, 0.0448935441672802, 6.757569644832984e-05, 0.01003269013017416, 
0.005193051416426897, 0.03626154735684395, -0.0321001335978508, 0.044109221547842026, 0.05060078576207161, 
0.01470070332288742, -0.013658800162374973, 0.011099732480943203, -0.03293010964989662, 0.008315506391227245, 
-0.03210996091365814, -0.00830135028809309, -0.050947245210409164, 0.04463012143969536, -0.012018737383186817, 
-0.018336383625864983, 0.03930007666349411, 0.0012789125321432948, 0.07745232433080673, 0.022031573578715324, 
0.018009385094046593, -0.04640892520546913, -0.026340441778302193, -0.022243011742830276, -0.04551200196146965, 
-0.01584431901574135, -0.03210310637950897, -0.04929659888148308, -0.015700876712799072, 0.042984966188669205, 
0.004717439413070679, 0.03742862120270729, -0.021172840148210526, 0.035357993096113205, 0.03566369414329529, 
-0.0405132956802845, 0.004425619263201952, 0.02820119448006153, 0.007701756898313761, -0.06642957031726837, 
-0.05204549431800842, -0.07282206416130066, 0.007807503454387188, -0.018617983907461166, 0.0017846962437033653, 
0.0200748760253191, -0.032764092087745667, 0.02420133724808693, 0.046500805765390396, 0.06583476066589355, 
0.05647718533873558, 0.024929586797952652, 0.05748383700847626, -0.02030375972390175, -0.02365254983305931, 
-0.014718756079673767, -0.04491754248738289, -0.004838720895349979, -0.00679454579949379, -0.04862109571695328, 
-0.010174546390771866, -0.050702739506959915, -0.018404362723231316, 0.020432347431778908, 0.02047303505241871, 
0.010875034146010876, 0.01811739057302475, -0.04721071943640709, 0.042313352227211, 0.04496416822075844, 
-0.030153363943099976, -0.07384004443883896, -0.07590270787477493, 0.007410866674035788, -0.02426181547343731, 
0.015488382428884506, 0.028483621776103973, 0.006726040970534086, 0.009956576861441135, -0.004765709862112999, 
0.051811449229717255, 0.01092519797384739, 0.00020957710512448102, 0.01945500820875168, 0.0005205181078054011, 
0.036703530699014664, -0.03804066404700279, 0.004208115860819817, -0.055863458663225174, -0.010580755770206451, 
-0.035983771085739136, 0.015906602144241333, 0.035729385912418365, -0.03304298594594002, 0.016075631603598595, 
-0.015954550355672836, -0.01945371739566326, -0.035458389669656754, -0.03326519578695297, -0.049663059413433075, 
-0.04855901375412941, 0.02790927141904831, -0.03843396529555321, -0.03772839903831482, 0.013151134364306927, 
0.002311717253178358, 0.04169470816850662, -0.058320339769124985, -0.05111575126647949, 0.02954081818461418, 
-0.06204572692513466, -0.06092226505279541, 0.011667993851006031, -0.028835000470280647, -0.057846423238515854, 
0.022323407232761383, -0.005097893066704273, -0.025465596467256546, -0.05585533380508423, -0.043758973479270935, 
-0.04730137437582016, -0.026266640052199364, 0.00019221466209273785, 0.0008168786880560219, -0.016450975090265274, 
0.04301564767956734, -0.009164693765342236, 0.01359735056757927, 0.07046617567539215, 0.06654179096221924, 
0.06348177790641785, 0.003378520719707012, -0.01993856392800808, -0.05342449992895126, 0.024159053340554237, 
-0.044413015246391296, -0.06277977675199509, -0.047453902661800385, 0.024149790406227112, 0.021758321672677994, 
0.04228750243782997, 0.032889224588871, -0.035355452448129654, -0.05328542739152908, -0.02733837068080902, 
0.022233551368117332, 0.015569968149065971, -0.04198841378092766, -0.00845404714345932, 0.059927016496658325, 
-0.05844658985733986, -0.02617940865457058, -0.030008386820554733, -0.08775496482849121, -0.046519484370946884, 
-0.011149312369525433, 0.042005546391010284, -0.04138478264212608, -0.06089821830391884, 0.024260370060801506, 
-0.015151992440223694, 0.022088617086410522, -0.0326574370265007, 0.06630778312683105, -0.009548266418278217, 
-0.03940867260098457, -0.00299225770868361, -0.04050185903906822, 0.020853467285633087, -0.005460336804389954, 
-0.04133345186710358, 0.03288334608078003, -0.031006518751382828, 0.007983261719346046, 0.023550555109977722, 
0.02407929114997387, 0.01352156326174736, -0.01772543042898178, 0.04450703412294388, 0.04402456060051918, 
-0.015343715436756611, -0.010322587564587593, -0.0446527823805809, 0.01977986842393875, 0.03809972107410431, 
0.010681956075131893, -0.01793571002781391, 0.020867815241217613, -0.019486194476485252, -0.042376574128866196, 
-0.02548130415380001, 0.03573416545987129, -0.04566936939954758, -0.029363734647631645, 0.029863225296139717, 
0.04860705882310867, 0.017469674348831177, 0.014404887333512306, -0.006639534141868353, 0.003754413453862071, 
-0.015015795826911926, -0.0030742657836526632, 0.04782585799694061, 0.002592981094494462, -0.00253894436173141, 
-0.04910775274038315, -0.03729339316487312, 0.022865289822220802, -0.03137559816241264, -0.02725626900792122, 
0.0023025369737297297, -0.04192150756716728, -0.01849093660712242, -0.0204590056091547, -0.026542291045188904, 
-0.006685365457087755, -0.04318462684750557, -0.011030099354684353, 0.00901743583381176, -0.04616275057196617, 
-0.024839600548148155, -0.02741185761988163, -0.03598829358816147, -0.00684569776058197, 0.025653162971138954, 
-0.007369127124547958, 0.0005294669535942376, 0.03176974505186081, -0.03775247931480408, 0.04815706983208656, 
-0.000580132647883147, 0.018844962120056152, 0.026849951595067978, -0.007470571435987949, 0.03765838220715523, 
0.01521436870098114, 0.017436780035495758, -0.03734878823161125, 0.050091858953237534, 0.02598697505891323, 
0.020351959392428398, 0.03251812607049942, -0.024346783757209778, 0.05390515923500061, -0.0034123219083994627, 
0.02290712110698223, 0.01583186350762844, 0.03468595817685127, -0.039042554795742035, 0.04173159971833229, 
-0.02266578935086727, -0.033165402710437775, -0.027869949117302895, -0.024735476821660995, 0.048881564289331436, 
-0.03388126939535141, 0.0400770865380764, -0.04725759103894234, -0.010154102928936481, -0.012988378293812275, 
-0.04918701946735382, -0.021944405511021614, 0.01647702232003212, -0.04114961996674538, 0.02237715758383274, 
0.02167193591594696, -0.03837963938713074, -0.0338326096534729, -0.0363212488591671, -0.002815404674038291, 
-0.04245815426111221, 0.0014790782006457448, 0.030765820294618607, -0.012225529178977013, -0.014567256905138493, 
-0.018318289890885353, -0.009332225657999516, -0.014478085562586784, 0.042559247463941574, -0.01246898714452982, 
-0.0400032177567482, 0.016865812242031097, -0.04713636636734009, 0.0003178583283443004, -0.04650994390249252, 
-0.005831985734403133, 0.03811447694897652, 0.030549930408596992, 0.0014209873043000698, -0.03707733005285263, 
0.01958622969686985, -0.00011397911293897778, 0.006674166768789291, 0.01115555688738823, 0.02354547008872032, 
-0.020331326872110367, -0.019619666039943695, 0.03754570707678795, 0.02087925747036934, -0.02849489636719227, 
0.022221779450774193, 0.04681918025016785, -0.04883193597197533, -0.04609961807727814, 0.00010415892029413953, 
-0.006481000687927008, -0.01916205696761608, -0.04284479469060898, -0.043145257979631424, 0.023225391283631325, 
-0.013518673367798328, 0.01862126961350441, 0.035597991198301315, -0.0014618383720517159, -0.009513788856565952, 
0.021043911576271057, 0.037354983389377594, -0.012530650943517685, -0.02717277966439724, 0.038143642246723175, 
0.033547792583703995, 0.019356556236743927, -0.01245393417775631, -0.0019339938880875707, -0.0194759052246809, 
0.03905000165104866, -0.010775967501103878, 0.003464810084551573, 0.01574612408876419, 0.041575197130441666, 
0.003714802674949169, 0.039526283740997314, -0.03226245567202568, -0.0062333145178854465, 0.02623075619339943, 
-0.019897140562534332, -0.04349762201309204, -0.03488074243068695, 0.004356745630502701, -0.004602194298058748, 
-0.03292633965611458, -0.027527527883648872, -0.023863907903432846, -0.044474128633737564, 0.02670423872768879, 
0.049146778881549835, 0.03445201739668846, -0.007357198279350996, -0.01390097662806511, 0.014700968749821186, 
0.04059813916683197, 0.023769570514559746, 0.040093500167131424, 0.016224730759859085, 0.01584954559803009, 
-0.04333912953734398, -0.01312643475830555, 0.005139123648405075, -0.023928727954626083, -0.03128444403409958, 
-0.016763655468821526, -0.04145924746990204, 0.004581892397254705, 0.014044462703168392, 0.026826778426766396, 
0.01727570965886116, 0.017319492995738983, -0.00745233753696084, 0.015950793400406837, 0.02111874148249626, 
-0.012941284105181694, 0.027538618072867393, -0.005024409852921963, 0.00014826706319581717, -0.04779144376516342, 
0.017428379505872726, 0.04316714406013489, 0.001905768527649343, -0.0444728322327137, -0.007581272162497044, 
0.012150530703365803, 0.0329517126083374, 0.040590401738882065, 0.040244344621896744, -0.0452585369348526, 
0.002756752772256732, 0.02731701172888279, -0.0052643888629972935, 0.015289215371012688, -0.01459995936602354, 
0.033991336822509766, 0.046104513108730316, -0.0072116306982934475, 0.03508663550019264, 0.00920562632381916, 
0.038734059780836105, 0.0456542894244194, 0.024804728105664253, -0.011190053075551987, 0.0215191338211298, 
0.011075702495872974, -0.041976477950811386, -0.04221345856785774, 0.020679228007793427, 0.024584567174315453, 
-0.02737507037818432, 0.010007694363594055, -0.03333579748868942, 0.011584215797483921, -0.03704999014735222, 
0.03513386473059654, 0.007826421409845352, -0.041530899703502655, -0.033457182347774506, -0.004894294776022434, 
0.02668309211730957, -0.03920059651136398, 0.02460755594074726, 0.024476394057273865, -0.022248581051826477, 
0.027822719886898994, 0.016801251098513603, 0.011904825456440449, -0.012518483214080334, 0.03446664288640022, 
0.04879794642329216, -0.011025049723684788, 0.00945059023797512, 0.0013872847193852067, -0.021089700981974602, 
0.03751429542899132, 0.04559212177991867, 0.03126287832856178, 0.0039002737030386925, -0.03444243222475052, 
-0.007223393768072128, 0.048976097255945206, -0.03562687337398529, 0.04448080062866211, -0.03878813236951828, 
-0.01198536530137062, -0.011824577115476131, 0.04677055776119232, 0.006247374229133129, -0.033917851746082306, 
-0.034738101065158844, 0.026315975934267044, -0.035314351320266724, -0.04935257136821747, 0.04313068091869354, 
0.01222807914018631, -0.005447400268167257, -0.0030470439232885838, -0.029819389805197716, 0.029420869424939156, 
0.008583944290876389, -0.04330293834209442, -0.015731269493699074, 0.03254437446594238, -0.048017729073762894, 
-0.021067963913083076, 0.018221909180283546, -0.04351777210831642, -0.021660717204213142, -0.030621778219938278, 
-0.04648783802986145, 0.04044675454497337, -0.024275535717606544, -0.036925796419382095, -0.04136137664318085, 
-0.022960858419537544, 0.02222319133579731, -0.03487643972039223, -0.021442176774144173, 0.04867351055145264, 
-0.0047661676071584225, 0.0321294367313385, 0.001171978423371911, 0.03274370729923248, -0.04541695863008499, 
-0.04708895832300186, -0.035409923642873764, -0.004597617778927088, -0.012732308357954025, 0.009523610584437847, 
0.04723278805613518, -0.01074150949716568, 0.015415104106068611, -0.040407925844192505, 0.03681974485516548, 
-0.0225813165307045, -0.04062674567103386, -0.037457119673490524, 0.04144395515322685, 0.026700537651777267, 
0.002746705198660493, 0.02225901558995247, -0.021456126123666763, -0.007789736147969961, -0.036724790930747986, 
-0.01674996316432953, -0.0026232688687741756, -0.007589706685394049, 0.013673183508217335, 0.04756946116685867, 
-0.015734685584902763, 0.03779590129852295, 0.021412547677755356, -0.015633363276720047, 0.03668404370546341, 
-0.03934093564748764, 0.04461175575852394, -0.035207077860832214, 0.0009419334237463772, 0.02489362843334675, 
-0.011931335553526878, 0.037214457988739014, 0.010384293273091316, -0.017337951809167862, 0.04287954419851303, 
-0.009144697338342667, 0.01765521988272667, 0.026982152834534645, -0.029931318014860153, -0.03402910754084587, 
0.024509327486157417, -0.020403597503900528, 0.04264245927333832, -0.039853569120168686, 0.04577770084142685, 
0.006079832557588816, 0.001407531788572669, 0.004622756969183683, -0.006688492838293314, -0.01908537745475769, 
0.02031427063047886, -0.0196585301309824, -0.03182579204440117, 0.04840056225657463, 0.025553762912750244, 
0.016623463481664658, 0.01157446950674057, 0.030191849917173386, 0.03727608546614647, 0.033757127821445465, 
-0.01648649387061596, -0.03762868046760559, -0.02198137901723385, -0.0011651276145130396, 0.02212919294834137, 
-0.006772508844733238, -0.017809035256505013, 0.03983898460865021, 0.021492449566721916, -0.02229209989309311, 
0.03697965294122696, -0.006298454478383064, 0.0002318381448276341, 0.012843025848269463, 0.008478996343910694, 
-0.04333266615867615, -0.014826934784650803, -0.003359096357598901, -0.03827130049467087, 0.042999498546123505, 
0.04159369319677353, 0.009882744401693344, -0.04951944947242737, -0.009807293303310871, -0.04219905659556389, 
-0.012206727638840675, -0.02293066494166851, 0.017334822565317154, -0.04467182978987694, 0.028461724519729614, 
0.014582055620849133, 0.02588231861591339, 0.0178290456533432, -0.03116324357688427, 0.01809541881084442, 
-0.010583648458123207, 0.0355510413646698, 0.015201110392808914, 0.0007649201434105635, -0.015284878201782703, 
0.05544239282608032, 0.032746706157922745, -0.010872568935155869, -0.01428880076855421, 0.021384969353675842, 
0.028037745505571365, 0.06463645398616791, 0.0036182336043566465, 0.00028228864539414644, 0.017316754907369614, 
-0.08331608772277832, -0.04866574704647064, 0.026947714388370514, 0.026995055377483368, 0.004452546592801809, 
0.05567578598856926, 0.07579909265041351, 0.05166148021817207, 0.12158050388097763, 0.019875001162290573, 
-0.009839589707553387, -0.052691761404275894, 0.023314978927373886, 0.02896099165081978, -0.030233627185225487, 
-0.03966181352734566, -0.11242200434207916, -0.02989375591278076, -0.07860971987247467, -0.028596511110663414, 
0.07711192965507507, 0.03145930916070938, -0.009945739060640335, 0.05231022462248802, -0.020190441980957985, 
-0.07790729403495789, 0.003626192919909954, -0.01586652174592018, 0.045740433037281036, 0.03507870435714722, 
-0.08451098203659058, 0.1082676351070404, 0.015878362581133842, 0.029517384245991707, -0.003617500653490424, 
-0.013146369718015194, 0.061850469559431076, -0.029703697189688683, -0.04153791069984436, -0.08287952840328217, 
-0.08271820098161697, 0.07502957433462143, -0.09390921890735626, -0.0655970349907875, -0.05083606764674187, 
0.021106652915477753, 0.1329953670501709, 0.06506823748350143, 0.08222232013940811, 0.04949039965867996, 
0.05194539576768875, 0.10627967119216919, 0.07291730493307114, -0.0130093889310956, 0.002842746675014496, 
0.0894661396741867, 0.06672318279743195, -0.01739642024040222, 0.012980340979993343, -0.010849909856915474, 
0.039253976196050644, 0.06341981887817383, 0.022224610671401024, 0.03512977808713913, 0.019783664494752884, 
0.040524668991565704, 0.0513940304517746, -0.07416750490665436, 0.014851754531264305, 0.007205545902252197, 
-0.06393223255872726, 0.015165816992521286, 0.03709249943494797, 0.050239481031894684, 0.016043368726968765, 
0.044774655252695084, 0.007378576789051294, 0.026121648028492928, -0.007580830715596676, -0.040866635739803314, 
-0.060312747955322266, -0.009313799440860748, -0.06675274670124054, 0.015697849914431572, 0.03561951220035553, 
-0.043701861053705215, 0.015579832717776299, -0.06419788300991058, -0.00538976676762104, -0.04556693136692047, 
-0.06084087863564491, 0.08296053856611252, 0.006239388138055801, 0.03474689647555351, 0.00363773456774652, 
0.0298733189702034, 0.052222784608602524, 0.06106821820139885, 0.06212129071354866, -0.0311589352786541, 
-0.002162219723686576, -0.01993446610867977, 0.03628973290324211, 0.04222249612212181, 0.015141111798584461, 
0.017547564581036568, -0.019090166315436363, -0.00701519101858139, -0.028583429753780365, -0.03598008677363396, 
-0.019279591739177704, 0.0004197300295345485, 0.019341416656970978, 0.04688921570777893, -0.021443573758006096, 
0.02481086552143097, -0.02578520029783249, 0.0013634968781843781, -0.022129327058792114, -0.04081503301858902, 
-0.015950357541441917, 0.03644702583551407, -0.02505439519882202, 0.03261392191052437, -0.0007925799582153559, 
-0.0381193570792675, -0.03700357675552368, 0.021380314603447914, 0.029726801440119743, -0.030057288706302643, 
-0.01661890186369419, -0.016287177801132202, -0.06809673458337784, -0.03009144961833954, 0.00326608051545918, 
0.012580026872456074, -0.03262508660554886, 0.026023725047707558, -0.004974188283085823, -0.025009693577885628, 
0.011285549029707909, 0.02232450619339943, -0.03982190042734146, -0.0035231425426900387, -0.016437089070677757, 
0.03732634335756302, -0.02798794023692608, 0.03195703402161598, 0.02605483867228031, 0.037856314331293106, 
0.004057833459228277, 0.027598807588219643, 0.004540115129202604, -0.031564004719257355, 0.0006710386369377375, 
0.01576486974954605, 0.017459005117416382, -0.027909642085433006, 0.024105088785290718, 0.05463029816746712, 
0.050358738750219345, 0.03683741018176079, -0.01580090820789337, -0.04876095429062843, -0.002482052193954587, 
0.053308434784412384, 0.052483681589365005, 0.035942237824201584, -0.018489377573132515, 0.02798108011484146, 
0.0466226302087307, -0.004350108094513416, -0.003826512722298503, -0.03923952206969261, 0.018049513921141624, 
-0.01952621340751648, 0.01616125926375389, -0.0186772458255291, 0.06239863485097885, 0.003310461062937975, 
0.07880600541830063, -0.0652037113904953, 0.03866186365485191, 0.03705345094203949, -0.06130484864115715, 
0.03480076417326927, -0.010658547282218933, 0.012497488409280777, -0.007911588996648788, -0.023094363510608673, 
0.0807018056511879, -0.0001960500521818176, 0.024534111842513084, 0.04470476880669594, 0.03722228482365608, 
0.04748407378792763, 0.021152313798666, 0.05795634910464287, 0.055787354707717896, -0.06620074063539505, 
-0.01606188900768757, -0.003296776209026575, -0.0043098051100969315, 0.06874358654022217, -0.040322382003068924, 
-0.006715628318488598, -0.025616120547056198, -0.009970973245799541, 0.013085593469440937, -0.030907757580280304, 
-0.02218196727335453, -4.2301184294046834e-05, -0.08236590027809143, -0.06671594828367233, -0.003931907471269369, 
0.013321698643267155, 0.005056675989180803, -0.019399495795369148, -0.004906374495476484, 0.024617699906229973, 
-0.032388146966695786, 0.0991748794913292, 0.12740615010261536, 0.003709197510033846, -0.025045262649655342, 
0.015203372575342655, -0.0066499970853328705, -0.0007575448835268617, 0.041223905980587006, -0.02045479603111744, 
-0.004796943627297878, 0.012570954859256744, -0.023707125335931778, -0.02853640913963318, -0.01435068529099226, 
-0.030200090259313583, -0.07631829380989075, 0.006619597319513559, 0.02892393246293068, 0.009783687070012093, 
-0.0063068498857319355, -0.006468489766120911, 0.01611449010670185, 0.030922580510377884, -0.08528552204370499, 
0.0004966625710949302, -0.03070877119898796, -0.022739145904779434, -0.023795807734131813, -0.045069754123687744, 
-0.022633854299783707, 0.0691610649228096, -0.017971299588680267, -0.002289087977260351, 0.030156055465340614, 
0.06407912075519562, 0.0233162809163332, -0.03179287165403366, 0.014866206794977188, 0.01633519120514393, 
0.030180498957633972, -0.05110440403223038, -0.057307168841362, -0.07295934110879898, -0.025788864120841026, 
0.061902955174446106, 0.0017844625981524587, -0.03071221336722374, 0.026800235733389854, 0.004531575832515955, 
-0.06369372457265854, 0.054461825639009476, 0.04684985429048538, 0.05268783122301102, -0.048567995429039, 
-0.02925822325050831, 0.06778718531131744, 0.05232555419206619, 0.009930022992193699, 0.03339790180325508, 
0.04755149409174919, -0.008549245074391365, 0.0007086736150085926, 0.05261605605483055, 0.011611102148890495, 
0.05637861415743828, -0.036756038665771484, -0.0614783875644207, 0.0028321731369942427, 0.008029715158045292, 
0.024153998121619225, -0.0696660652756691, -0.018896974623203278, -0.04448120296001434, -0.03878473490476608, 
0.02888214960694313, -0.04369496926665306, -0.02219236269593239, 0.016012491658329964, -0.003224819665774703, 
-0.04259883612394333, -0.0052856262773275375, -0.027795957401394844, -0.012081067077815533, -0.059676479548215866, 
0.046424079686403275, 0.0005305907689034939, -0.0034449275117367506, -0.0003310452157165855, 0.018460972234606743, 
0.01806233450770378, 0.0013459970941767097, 0.024869050830602646, -0.02673233300447464, -0.020817484706640244, 
-0.06952451169490814, -0.09290843456983566, -0.04653257504105568, 0.005893641617149115, -0.06278587877750397, 
-0.09472624212503433, -0.0774131491780281, -0.10114475339651108, -0.027360249310731888, -0.02071196399629116, 
0.050165772438049316, 0.007043498568236828, -0.04060131311416626, -0.007804371416568756, 0.010801663622260094, 
-0.024442022666335106, -0.011910743080079556, -0.06152462959289551, -0.017592184245586395, -0.047693509608507156, 
0.0548408180475235, 0.054970283061265945, -0.0384356714785099, 0.03962152823805809, -0.00373687781393528, 
